#ifndef RNN_LSTM_WEIGHT_H
#define RNN_LSTM_WEIGHT_H

#include "rnn.h"

// 输入门权重与偏置
static FP_TYPE Weight0_i[32][60] = {
    {-0.106930, 0.529342, 0.502569, 0.248953, 0.467968, 0.395135, 0.461551, 0.743384, 0.698399, 0.201071, -0.168455, -0.269817, -0.209042, -0.082722, 0.120380, 0.286042, 0.041010, -0.106970, 0.268956, 0.080275, 0.129652, 0.005665, -0.348025, 0.023740, -0.013013, 0.283246, 0.237628, 0.299947, -0.243319, -0.186562, -0.059433, 0.182635, 0.216162, 0.179108, 0.100295, -0.467804, 0.053806, -0.189060, -0.531980, -0.001753, -0.094566, -0.329519, -0.182852, 0.455808, -0.491968, -0.132490, 0.237850, -0.212153, 0.453102, -0.050388, 0.031682, -0.094850, -0.033603, 0.449894, -0.007147, -0.305661, -0.333027, -0.201400, 0.092746, 0.110453},
    {0.270012, -0.308235, -0.006342, -0.309746, 0.000906, -0.147218, 0.036264, 0.021787, 0.147662, 0.402407, 0.438090, 0.383844, 0.173247, 0.002781, 0.171490, 0.270845, 0.073668, -0.069505, -0.159643, 0.183970, 0.198899, 0.162196, 0.129752, 0.529427, 0.800872, 0.663865, 0.050546, 0.012719, 0.019182, 0.377108, -0.414315, 0.551304, 0.239148, 0.227806, 0.627499, -0.033075, 0.582854, -0.008579, 0.012228, -0.141733, -0.720570, 0.040487, 0.494935, 0.433577, -0.338021, -0.026769, -0.494754, 0.179168, 0.274976, 0.298611, 0.325719, -0.357092, -0.077890, 0.109746, 0.159806, 0.030485, -0.234002, 0.102316, 0.079292, 0.148238},
    {0.119454, 0.184619, 0.194383, 0.557119, 0.399321, 0.168448, -0.027689, -0.100807, -0.054636, -0.158909, -0.222006, -0.329944, -0.475560, -0.501934, -0.238539, -0.131104, 0.075439, -0.070261, -0.052781, 0.151885, 0.046264, 0.064150, 0.180468, 0.158130, 0.273188, 0.052372, 0.158656, -0.301253, -0.013920, 0.082644, 0.233735, -0.073998, -0.288646, 0.029169, 0.026535, 0.292109, 0.106878, 0.493454, -0.359804, -0.023606, 0.110113, 0.450555, 0.284675, -0.463249, -0.429529, 0.161018, 0.193331, 0.683867, 1.029386, 0.047159, -0.338683, -0.146762, -0.029842, -0.243866, -0.043125, 0.157098, -0.466413, 0.024189, 0.035854, -0.115160},
    {0.071275, 0.537316, 0.138399, 0.243801, -0.205659, -0.168659, -0.038904, -0.121001, -0.202457, -0.265600, -0.052034, 0.027485, 0.141105, 0.399462, 0.399025, 0.030019, -0.082965, -0.166109, 0.037489, 0.133888, 0.093396, 0.112506, -0.179834, 0.081488, 0.256614, 0.407169, -0.061270, -0.127154, -0.228966, 0.153251, 0.002591, -0.269507, -0.187190, -0.129969, 0.927667, 0.129398, 0.003269, -0.045842, -0.023154, -0.102875, 0.128807, -0.609010, -0.193607, 0.370815, 0.028369, 0.061893, 0.066960, 0.370957, 0.180875, -0.020662, 0.104624, -0.095209, -0.184011, 0.440179, 0.806047, -0.328543, 0.221534, 0.053237, 0.102748, 0.343832},
    {0.032753, -0.015369, -0.054923, 0.040597, 0.152736, 0.068045, 0.190509, 0.007120, 0.111057, -0.148967, 0.179627, 0.140636, -0.018022, 0.173032, 0.289147, -0.248329, -0.163766, 0.057346, -0.113377, 0.447046, 0.626485, 0.836013, 0.560406, 0.648267, 0.261759, -0.016263, 0.036404, 0.528937, 0.630097, 0.258471, -0.131973, 0.464699, -0.064696, -0.234834, 0.235449, 0.111882, 0.081371, 0.073263, -0.065092, 0.686083, -0.289699, -0.218843, 0.501553, -0.334832, -0.190543, 0.213911, -0.284018, 0.296965, -0.168038, 0.383077, 0.023660, -0.468456, 0.052505, 0.000376, -0.087528, 0.078190, 0.020572, -0.094244, 0.025985, 0.140693},
    {-0.021451, 0.304487, 0.302013, 0.222497, -0.045786, 0.231254, 0.084849, -0.171753, 0.118992, 0.149806, 0.109778, 0.123605, 0.510078, 0.370325, 0.170656, 0.008286, 0.081609, -0.213239, -0.399471, -0.269203, -0.394073, -0.220541, 0.001595, 0.011898, -0.022330, -0.266293, 0.175344, -0.046526, 0.124799, -0.184182, 0.236802, 0.079018, 0.346115, -0.435619, -0.439996, 0.115823, 0.013640, 0.038207, -0.024482, -0.199058, 0.152325, 0.116042, 0.027302, 0.391203, 0.481736, -0.213668, 0.129911, 0.011649, -0.143166, -0.121143, -0.220989, -0.170065, 0.188391, -0.199610, 0.055268, 0.076722, -0.030053, 0.008803, -0.146650, -0.183732},
    {0.450423, 0.243600, -0.395290, -0.114979, 0.255351, 0.236252, -0.162545, -0.074341, -0.234790, 0.178407, 0.251598, 0.354854, 0.359961, 0.588040, 0.843342, 0.369545, 0.225423, 0.375562, 0.688842, 0.592045, 0.480907, 0.086789, 0.147955, 0.086457, 0.026040, -0.815253, -0.813331, -0.606106, -0.196266, -0.084161, -0.321099, 0.050075, -0.207632, -0.066272, 0.724442, 0.342633, 0.154911, -0.212697, 0.063043, -0.229875, 0.186659, -0.106032, 0.105388, 0.381476, -0.018252, 0.237539, 0.218733, 0.231855, -0.133825, -0.042768, -0.203197, 0.070749, 0.231506, -0.024764, 0.242891, -0.275405, -0.082879, 0.237596, -0.116641, 0.144622},
    {0.304135, 0.486995, 0.283996, 0.635823, -0.159122, -0.208393, -0.042449, -0.291189, -0.544508, -0.435599, -0.255797, -0.148296, 0.083854, 0.076816, 0.029098, -0.446506, -0.403630, -0.094016, 0.142815, -0.013235, 0.082008, 0.476275, 0.568203, 0.318787, 0.082723, -0.207415, 0.136009, -0.161849, 0.051740, 0.309921, -0.099949, 0.266705, 0.443697, 0.169481, -0.635700, 0.376984, 0.175080, 0.071441, 0.141990, -0.182155, -0.019126, 0.105747, -0.530462, 0.119616, 0.003868, -0.353991, 0.011844, 0.201383, -0.290639, 0.027676, 0.321747, 0.328311, -0.234202, 0.218400, -0.225134, -0.062857, -0.255797, 0.006949, 0.009955, 0.193026},
    {0.276567, 0.336595, 0.131072, 0.525531, 0.101766, 0.111671, 0.033559, 0.163713, -0.249717, -0.330189, -0.318826, -0.210854, 0.326737, 0.503898, 0.336946, 0.026290, -0.088243, 0.000128, 0.166337, -0.060873, -0.300408, -0.215041, -0.106653, -0.053809, 0.365801, 0.325708, 0.334272, -0.027555, 0.324406, 0.069389, 0.376841, 0.006827, -0.292587, 0.254076, 0.223360, 0.008064, 0.088700, 0.173453, -0.507991, -0.040736, 0.033412, -0.302559, -0.362446, -0.212066, -0.358648, 0.497763, 0.400406, 0.365321, 0.306813, 0.002815, -0.069558, -0.091281, -0.167526, 0.167177, 0.479826, -0.365912, -0.047097, -0.009206, 0.297264, 0.160358},
    {-0.144692, -0.193109, -0.231568, -0.019399, -0.154907, 0.116732, 0.146124, -0.109228, 0.089444, 0.032298, -0.064702, 0.123028, 0.313991, 0.401107, 0.599932, 0.646731, 0.472149, 0.141281, 0.317978, -0.060355, 0.031091, -0.087874, 0.095197, 0.013923, -0.206388, -0.313255, -0.402182, 0.135207, -0.162980, -0.046234, -0.040445, -0.051567, -0.255119, 0.153998, 0.415139, -0.273101, -0.139617, 0.596263, -0.025451, -0.099085, 0.370635, -0.412030, 0.190770, 0.141164, -0.468333, 0.147036, 0.140163, -0.047563, 0.409490, 0.134692, -0.155067, 0.144335, 0.034110, 0.084500, -0.178835, 0.085308, 0.395937, -0.034870, -0.002881, -0.229815},
    {-0.244010, -0.282386, 0.179517, -0.018854, -0.377565, -0.324227, -0.419711, -0.329290, -0.225841, -0.348853, -0.035785, -0.031849, 0.077604, -0.173376, 0.133360, 0.019267, -0.063178, -0.068771, 0.039084, -0.083487, 0.193900, 0.131502, 0.206392, 0.408829, -0.192539, 0.010920, -0.350058, -0.007933, -0.064203, 0.165961, 0.517319, 0.079552, 0.428251, 0.132683, -0.617478, -0.016382, 0.437890, 0.013350, 0.422248, -0.156282, -0.145349, 0.284918, -0.002868, 0.433801, -0.145308, 0.125725, 0.103470, -0.080522, 0.264455, -0.236938, 0.319016, -0.238777, 0.260689, -0.209382, -0.201196, -0.113086, -0.186694, -0.313154, -0.098953, 0.233745},
    {-0.022931, 0.099767, 0.032231, -0.135104, 0.305410, -0.035602, 0.075172, -0.092500, -0.007865, -0.118639, -0.006158, 0.309136, 0.182385, 0.284563, 0.204096, 0.215277, 0.001146, -0.120833, -0.265038, -0.342465, -0.538085, -0.687003, -0.504261, 0.117123, 0.107055, 0.111697, 0.112937, 0.463596, 0.442345, -0.284648, -0.013984, -0.107083, -0.031194, 0.660210, 0.076828, -0.260593, 0.034970, 0.283007, -0.081596, -0.152599, 0.106991, -0.256148, 0.330617, 0.399937, -0.307462, 0.052264, 0.195425, 0.151781, -0.296849, -0.182833, -0.361798, -0.024715, 0.242720, 0.442626, -0.080093, -0.267528, -0.060875, -0.325699, 0.107173, 0.070806},
    {-0.137172, 0.068839, 0.164787, 0.529302, 0.342793, 0.446379, 0.672833, 0.817810, 0.508416, 0.050335, -0.009586, 0.207794, -0.083289, 0.110904, 0.140606, -0.229005, -0.224390, -0.132867, 0.104179, 0.096208, -0.029639, -0.171583, -0.075203, -0.422349, -0.162860, 0.250563, 0.067386, 0.055179, -0.065852, 0.080066, 0.124571, -0.074897, 0.171320, 0.224930, 0.119969, -0.389656, -0.099325, 0.006502, 0.234733, 0.145537, 0.253279, -0.307894, 0.284030, -0.475468, -0.067391, 0.069889, -0.006894, -0.026496, -0.009298, 0.036927, 0.141342, 0.107427, -0.042900, 0.183149, -0.270223, -0.176510, -0.308375, 0.003576, 0.318565, 0.262520},
    {-0.209437, -0.074916, 0.128057, -0.158398, 0.279007, 0.289599, 0.404320, -0.109339, -0.087108, -0.095255, -0.073537, -0.250230, -0.351949, -0.541406, -0.305307, 0.134390, 0.391210, 0.384033, 0.029433, 0.020918, -0.239037, 0.001043, 0.068317, 0.041228, 0.335109, 0.215628, 0.141977, -0.739896, -0.114246, -0.188867, 0.150579, 0.073567, 0.108981, 0.106484, -0.292416, 0.381032, 0.125355, 0.047840, -0.239610, 0.085839, 0.038853, 0.093088, -0.226531, 0.262628, 0.243621, -0.161485, -0.434910, 0.042046, 0.286077, -0.413480, -0.110008, -0.267796, 0.103118, -0.165766, 0.071121, 0.099888, -0.294176, -0.068196, 0.533328, -0.116166},
    {-0.060611, 0.153323, -0.155310, -0.266591, -0.070232, 0.016556, -0.267293, -0.399056, -0.456127, -0.176391, -0.339949, -0.288571, -0.178692, -0.255715, -0.100595, -0.307661, -0.059595, -0.264482, -0.245899, -0.458087, -0.429563, -0.510833, -0.824813, -0.835048, -0.817648, -0.138703, 0.043184, -0.019891, -0.240712, 0.035628, 0.219026, 0.451292, 0.032937, 0.019216, -0.415459, -0.053520, -0.045630, -0.313984, 0.155451, 0.196950, -0.040559, -0.207255, 0.010864, 0.046300, 0.036445, -0.157878, -0.025737, 0.100382, 0.061623, -0.299253, 0.209691, -0.013287, 0.161895, 0.162846, -0.235071, 0.278616, 0.219282, -0.161098, -0.009699, -0.110023},
    {-0.123003, 0.191949, -0.478483, -0.093230, -0.181521, -0.159514, -0.133267, -0.019508, -0.065825, -0.244480, -0.031017, -0.132722, -0.084788, 0.123966, -0.074256, -0.127425, -0.230384, -0.235673, 0.130812, 0.157066, 0.347556, 0.096961, 0.194534, 0.158806, -0.149952, 0.558883, 0.564328, 0.366401, -0.134301, 0.182461, -0.099685, 0.209372, -0.186118, 0.267379, 0.564241, -0.018657, -0.167871, 0.501313, 0.061312, 0.168869, 0.058536, -0.078564, 0.098407, -0.061851, 0.089324, 0.330952, -0.304476, -0.069033, -0.313700, -0.282266, 0.343926, -0.153118, -0.329224, 0.206684, -0.116021, 0.140741, 0.072684, -0.062707, -0.488587, 0.148627},
    {-0.223674, 0.020107, 0.066689, -0.139568, -0.450602, -0.073686, -0.095447, -0.126859, -0.437033, -0.672066, -0.746068, -0.575263, -0.113702, -0.128855, -0.206939, -0.006611, -0.175954, 0.004643, -0.063484, 0.197664, -0.116025, 0.226757, 0.055809, 0.187664, 0.551578, 0.556657, 0.380615, 0.108178, 0.031422, 0.164908, 0.147216, -0.054230, 0.041768, -0.010236, 0.230281, -0.156282, 0.172207, -0.002895, 0.323313, -0.038308, -0.017048, -0.083757, -0.143349, 0.231719, 0.348348, 0.124860, -0.391994, -0.106180, 0.210859, -0.339264, 0.284851, -0.017774, -0.304745, 0.460254, -0.533927, -0.437445, -0.639908, 0.037194, -0.125584, 0.196372},
    {-0.313079, 0.105352, -0.111443, 0.097194, 0.391144, 0.369709, 0.408938, 0.309601, 0.377816, 0.151442, 0.103532, 0.302698, 0.372367, 0.403586, 0.149387, -0.209314, -0.115818, -0.176389, -0.562918, -0.992141, -0.820417, -1.025572, -0.942460, -1.062506, -0.835257, -0.575404, 0.342147, 0.263520, 0.025972, -0.352595, 0.024506, -0.239731, 0.140647, -0.017310, 0.213321, -0.242473, -0.203711, 0.286193, -0.215310, 0.148407, -0.137503, -0.022405, 0.172749, 0.240386, -0.256508, 0.408550, -0.047156, -0.024918, -0.230840, 0.161330, 0.292768, -0.148960, 0.093935, 0.114034, -0.356595, -0.152529, 0.111783, -0.160141, -0.461713, -0.197822},
    {0.060053, 0.522941, 0.452189, 0.314114, 0.062762, 0.238686, 0.139267, -0.250690, -0.329182, -0.277473, -0.119999, 0.206935, 0.166136, 0.233946, 0.348869, 0.213889, -0.168067, -0.081247, -0.084138, -0.060790, -0.170351, -0.295305, -0.070762, 0.072498, 0.316931, 0.075962, 0.639173, 0.198067, 0.498869, 0.096240, 0.085572, 0.282804, -0.500721, -0.035450, 0.183272, -0.380420, 0.146328, -0.117385, 0.406478, 0.285825, -0.222576, -0.080872, -0.288524, 0.206767, -0.566912, -0.090918, -0.302349, 0.400873, 0.472071, -0.271132, -0.371007, -0.056529, 0.022111, 0.211926, -0.027254, 0.012424, -0.046301, 0.067641, 0.169043, -0.022382},
    {0.039376, 0.077080, 0.477582, 0.453853, -0.205873, -0.324072, -0.851237, -0.655337, -0.380937, -0.499593, -0.118999, -0.146065, -0.115592, 0.019668, 0.054879, -0.164948, -0.258097, -0.137255, -0.068381, 0.073299, 0.193547, 0.228672, -0.058825, -0.459907, -0.199826, 0.095656, 0.085153, -0.097727, -0.054332, 0.073385, 0.013872, 0.010278, 0.459084, 0.122221, 0.188004, -0.055347, 0.320784, -0.153986, -0.146801, -0.184478, -0.359805, -0.063721, -0.062502, 0.469359, -0.404102, 0.172200, -0.170659, 0.090429, 0.575308, 0.093265, -0.063521, -0.271816, 0.236949, 0.222108, -0.150437, 0.035849, -0.140713, -0.175334, 0.003267, 0.098966},
    {-0.038702, -0.102054, 0.565215, 0.153627, -0.080197, 0.105515, -0.016805, -0.437982, -0.065518, -0.239411, -0.285847, -0.010335, 0.188352, 0.182593, 0.186346, 0.233743, 0.376694, 0.331340, 0.633825, 0.502725, 0.341857, 0.048313, 0.234680, 0.472613, 0.477877, -0.155803, -0.184527, 0.008146, 0.267379, -0.027099, 0.030516, -0.181674, 0.279815, -0.285839, 0.369859, -0.072704, 0.113708, 0.280616, 0.007656, 0.377756, -0.072258, -0.076680, 0.564479, -0.122204, -0.168352, 0.747609, 0.183446, 0.155923, 0.641219, -0.181400, 0.357198, 0.073880, -0.075776, 0.468889, -0.561339, -0.330074, -0.086286, 0.260978, -0.030798, 0.163701},
    {-0.023889, -0.001625, -0.292657, -0.039459, 0.004881, -0.138848, -0.226837, -0.277010, -0.570082, -0.630882, -0.344706, -0.568806, -0.566303, -0.008033, -0.072679, 0.022547, -0.045629, -0.095824, -0.066782, 0.164341, 0.341370, 0.362354, 0.098498, 0.014955, 0.069518, 0.194962, 0.094778, -0.138153, 0.057557, 0.310454, 0.200417, 0.317681, 0.042852, -0.019858, 0.118999, -0.141867, 0.202744, 0.028759, -0.370454, 0.133461, 0.021375, -0.299622, 0.610658, -0.440733, -0.421268, 0.259621, -0.112551, 0.364614, 0.892741, -0.004850, 0.090190, 0.086801, -0.075100, 0.032674, 0.260071, -0.340386, -0.184159, 0.025749, -0.457302, 0.193841},
    {-0.007134, -0.153143, 0.108525, 0.003119, 0.219849, 0.097509, -0.015750, -0.046927, -0.097134, -0.142219, -0.144709, 0.176998, 0.089634, 0.205950, 0.492236, 0.321115, 0.282909, 0.491614, 0.547643, 0.829357, 0.639308, 0.716338, 0.516069, 0.369690, 0.337360, 0.118871, 0.010487, 0.140111, 0.188215, -0.052678, 0.232260, -0.110434, -0.014884, -0.352457, 0.079583, -0.031085, -0.194426, 0.133092, -0.381421, 0.060149, 0.131043, -0.095927, 0.054268, 0.137723, -0.520927, 0.083337, -0.032085, 0.044465, 0.015001, -0.170346, -0.080313, 0.285695, 0.359238, -0.190070, -0.090496, 0.066066, 0.360623, -0.361486, 0.130087, -0.115947},
    {0.456963, 0.035803, 0.247164, -0.061026, -0.041268, -0.374004, -0.261336, -0.200424, -0.004851, 0.005592, 0.393646, 0.337919, 0.207161, -0.006958, 0.132316, 0.038362, -0.159350, -0.291702, -0.137751, 0.012397, -0.200108, -0.187250, -0.337947, -0.587985, -0.343850, -0.086908, -0.037258, 0.262717, 0.193958, -0.079441, 0.195955, -0.185647, -0.054757, -0.084875, -0.134208, -0.093051, -0.041710, 0.126846, 0.187120, -0.002864, -0.008877, 0.232039, 0.088471, 0.013760, -0.262188, -0.160677, 0.022877, 0.202570, 0.255038, -0.025458, -0.165399, 0.049595, 0.269846, -0.178458, -0.125734, -0.179078, 0.110120, -0.267178, -0.024629, -0.120791},
    {0.275963, 0.436405, 0.201975, -0.374987, -0.244760, -0.486491, -0.469335, -0.315002, -0.279723, -0.359496, -0.156575, -0.256261, -0.357396, -0.409938, -0.044070, 0.155336, 0.156713, 0.137613, 0.176309, -0.006512, -0.310296, -0.182051, -0.260918, 0.026795, 0.108804, 0.337521, 0.303408, -0.137890, -0.024499, 0.422537, -0.007190, 0.424236, 0.289800, 0.503398, 0.056421, 0.021966, 0.484699, 0.471088, 0.289628, 0.247148, -0.071934, 0.189978, 0.070692, 0.621120, 0.158126, -0.114334, 0.267996, 0.217674, -0.133577, 0.358912, 0.268968, -0.163130, 0.475719, -0.030077, -0.295525, 0.308578, -0.401119, 0.367186, 0.117275, -0.120056},
    {0.224044, -0.110699, 0.059852, -0.761241, -0.267105, 0.308031, 0.379162, 0.188299, 0.014207, 0.224671, 0.072279, 0.103704, 0.413274, 0.243191, 0.604562, 0.212612, 0.284842, 0.563865, 0.411993, 0.306873, 0.059318, 0.401709, 0.301066, 0.632327, 0.368069, 0.169788, -0.159298, -0.261879, 0.007488, 0.029158, 0.292335, -0.219812, -0.059534, 0.040680, -0.110872, 0.089297, 0.250628, 0.283826, -0.185612, -0.155853, 0.170057, 0.257355, 0.026290, 0.676202, -0.429277, 0.416526, 0.217462, 0.227433, -0.361726, -0.456631, 0.099809, -0.453453, -0.060768, -0.240544, -0.176513, -0.426912, 0.180697, -0.206626, 0.327323, -0.035488},
    {0.060406, -0.333197, 0.522871, 0.515829, 0.551253, 0.370073, 0.399453, 0.002001, 0.043090, -0.342656, -0.051642, 0.160461, -0.010914, -0.102405, 0.236425, 0.323965, 0.014588, 0.097129, 0.068198, -0.114833, -0.040830, 0.080530, 0.027234, 0.132654, 0.023145, -0.158417, -0.034378, -0.254736, -0.164135, -0.229969, -0.024224, -0.175892, 0.446848, -0.140733, 0.139791, -0.155109, -0.127061, 0.090595, 0.312590, -0.089375, 0.012079, -0.186390, -0.358073, 0.683674, -0.069952, 0.164400, 0.162969, -0.163294, -0.272289, -0.496328, -0.283625, 0.169713, 0.204470, 0.481369, 0.286048, -0.131801, 0.109435, -0.133308, -0.216629, -0.342606},
    {0.316699, 0.106341, 0.181117, 0.254815, -0.140635, 0.076327, 0.194189, 0.111394, -0.208713, 0.051651, -0.130167, -0.001996, 0.127596, 0.388536, 0.167137, 0.158490, 0.161971, -0.004717, -0.032363, -0.092368, -0.053305, -0.116600, -0.203190, -0.165725, -0.416766, -0.425230, -0.660030, -0.032886, -0.030860, -0.075527, 0.204179, 0.022010, 0.255927, -0.157074, -0.384277, -0.259489, 0.154223, -0.217427, 0.148680, 0.100254, 0.043176, 0.046362, -0.622501, 0.269263, -0.063194, 0.265568, -0.139615, -0.048151, -0.060621, -0.386558, 0.158517, 0.255832, 0.203379, 0.045949, 0.225351, -0.418263, 0.830961, -0.285782, 0.222906, -0.129349},
    {0.314946, -0.021488, 0.144851, 0.246336, -0.208777, -0.524317, -0.617628, -0.686666, -0.607954, -0.242364, -0.003386, 0.072253, 0.297786, 0.351606, -0.020259, -0.112550, -0.043960, 0.010616, 0.184925, 0.176234, 0.226544, 0.255656, 0.302116, 0.374352, 0.448229, -0.255909, -0.522410, 0.136560, 0.101275, 0.044300, 0.285732, -0.239867, -0.232278, 0.031365, -0.176333, 0.133116, -0.050495, -0.199599, -0.161507, -0.130671, 0.018353, -0.370835, -0.107851, 0.183529, -0.141141, -0.091124, 0.474101, 0.013265, -0.511918, -0.204764, -0.245914, 0.155381, 0.126325, 0.024254, -0.119124, 0.011102, 0.397552, -0.067701, 0.096814, -0.145382},
    {0.033663, -0.177532, 0.234767, 0.263490, -0.103191, -0.574579, -0.615681, -0.778201, -0.761460, -0.498647, -0.745624, -0.564995, -0.391532, 0.037544, -0.107225, 0.217965, 0.409950, 0.055175, -0.112965, -0.150203, 0.090787, -0.057851, -0.134806, 0.043833, 0.029077, 0.035316, -0.180426, -0.223214, -0.166658, 0.208059, 0.195242, 0.371182, 0.384074, 0.356213, -0.227293, 0.174255, 0.487432, 0.375828, 0.094340, 0.323599, -0.045261, 0.008455, 0.073765, 0.433506, 0.440131, 0.069217, -0.469757, 0.170152, 0.219348, 0.104063, -0.154868, -0.112415, 0.066107, 0.081922, -0.193225, -0.225610, -0.589175, 0.386886, -0.004808, 0.154866},
    {0.253098, 0.246062, 0.132936, 0.264657, 0.355284, 0.475006, 0.420562, 0.422348, 0.318403, 0.087537, -0.143101, -0.190228, -0.274787, -0.102938, 0.116430, -0.213853, -0.307371, -0.202317, 0.072638, -0.016904, -0.022959, -0.292108, -0.240107, -0.129685, -0.409773, -0.253933, 0.095227, 0.226704, 0.170531, 0.027528, 0.386052, -0.044137, -0.244119, 0.045023, 0.461991, 0.163296, 0.097741, 0.159170, 0.323687, -0.142701, -0.137577, 0.280952, 0.015679, 0.244069, -0.257177, 0.406420, 0.057891, 0.387347, 0.274231, -0.104447, -0.215654, -0.221699, 0.079006, 0.556225, -0.003815, -0.278958, -0.286309, 0.099562, -0.083285, 0.050254},
    {0.272169, 0.301192, 0.643750, -0.098668, -0.323766, -0.455467, -0.287651, -0.321571, -0.278690, 0.094361, 0.628667, 0.567671, 0.600014, 0.299997, 0.609154, 0.752256, 0.235855, 0.164327, 0.156771, 0.034104, -0.152838, 0.089056, 0.059339, 0.183140, 0.482934, 0.025960, -0.022102, 0.446346, 0.199136, 0.576121, -0.162999, 0.074438, -0.242224, -0.064322, 0.171660, 0.385579, 0.124889, 0.324848, -0.056953, 0.285259, -0.025359, 0.412993, 0.170550, -0.045621, 0.064218, 0.360177, -0.063025, 0.557117, -0.189128, 0.590690, 0.159477, -0.212872, 0.023517, -0.255609, 0.129737, 0.495329, -0.188659, 0.654063, 0.001772, -0.346157},
};

static FP_TYPE Bias0_i[32] = {
    -0.033029, 0.172442, 0.407938, 0.344010, 0.541867, 0.078092, -0.153458, 0.267763, 0.321330, -0.484127, 0.606049, -0.279225, 0.044257, 0.277241, 0.188051, 0.237188, 0.226762, -0.318180, 0.829606, 0.023809, 0.382208, 0.202781, -0.523497, 0.089262, 0.370982, 0.199334, -0.329527, -0.383557, 0.328028, -0.022611, -0.061480, 0.865352
};

// 遗忘门权重与偏置
static FP_TYPE Weight0_f[32][60] = {
    {0.096906, 0.292216, 0.156148, 0.377304, 0.287250, -0.030633, 0.447974, 0.398177, 0.358066, 0.092871, -0.136202, -0.026615, 0.230596, 0.387301, 0.298043, 0.209873, -0.041850, 0.101021, 0.271899, -0.106096, 0.054290, -0.148729, -0.263724, -0.251504, -0.249771, -0.338545, 0.147945, -0.261987, 0.375957, 0.137110, 0.046658, 0.214970, -0.274336, -0.014467, -0.019441, -0.198742, 0.246881, 0.190398, -0.357152, 0.337537, -0.035351, -0.214930, 0.687539, -0.480399, 0.032958, -0.081488, -0.096533, 0.146399, 0.128212, 0.106552, -0.225093, -0.302369, -0.425651, 0.270743, -0.212259, 0.072807, -0.402808, -0.074451, 0.083440, 0.116297},
    {0.159171, 0.251781, -0.308410, -0.042059, -0.032989, -0.433683, -0.087163, -0.185125, -0.023788, -0.042755, -0.114650, -0.031652, 0.407666, 0.672665, 0.559580, 0.195741, -0.130123, 0.015979, -0.283646, -0.242112, -0.114433, -0.094497, -0.392065, 0.078901, 0.249534, 0.278568, 0.345507, 0.219792, 0.138583, -0.031016, 0.309514, -0.067970, -0.466189, 0.002979, -0.213967, -0.325688, -0.079258, 0.174687, -0.354834, -0.066351, 0.158677, 0.253482, -0.077505, -0.105421, -0.635861, 0.276124, 0.277888, 0.313618, 0.730936, -0.182450, -0.337043, 0.057727, 0.145966, -0.255397, 0.153949, -0.026589, 0.269154, -0.216349, 0.184312, 0.095459},
    {0.053606, 0.108201, -0.051680, -0.086007, -0.089046, -0.001178, 0.160748, -0.082422, -0.012285, 0.050160, 0.086981, -0.191366, 0.054046, -0.066251, -0.106036, -0.113707, -0.171315, -0.176971, 0.001756, 0.087980, -0.130640, -0.055429, 0.197946, 0.223093, 0.250135, 0.118971, 0.084871, 0.526821, 0.293219, 0.179409, -0.150028, 0.112949, -0.256001, 0.131353, 0.220459, -0.226135, 0.347587, 0.031733, -0.292832, 0.250512, -0.375298, 0.047898, 0.167461, 0.038497, -0.441471, 0.215708, 0.026489, 0.485027, 0.440828, 0.018713, -0.053851, -0.129238, -0.272120, 0.001546, -0.051902, 0.153797, -0.309837, 0.033484, 0.233211, 0.033836},
    {0.119261, 0.317390, 0.066466, 0.035292, -0.102808, -0.002813, -0.084821, 0.045864, -0.201742, -0.082295, -0.372223, -0.313593, -0.348950, 0.189935, 0.512971, 0.077553, 0.216902, 0.039409, -0.025007, -0.022597, 0.120523, -0.073046, -0.178821, 0.275946, 0.554164, 0.270218, 0.346272, 0.367676, 0.268728, -0.090597, -0.250558, 0.230303, 0.176463, 0.160262, -0.040459, -0.139758, 0.361841, 0.067607, -0.441286, -0.003350, -0.232588, -0.086641, -0.272555, -0.602306, -0.564819, -0.140069, 0.082491, 0.517715, 0.125877, 0.161853, 0.085843, 0.005266, -0.331583, 0.096163, 0.295172, -0.041473, 0.109554, 0.219298, 0.449006, 0.419047},
    {0.067487, 0.164203, 0.060705, 0.127623, 0.825552, 0.407832, 0.098062, 0.094179, 0.151648, -0.005037, -0.119834, -0.054155, 0.105316, 0.055229, -0.005797, -0.241500, -0.453376, -0.106675, -0.180968, -0.114429, -0.144123, -0.100443, 0.174477, 0.233721, 0.575420, 0.340420, 0.219458, 0.429476, 0.209059, 0.031677, -0.072246, 0.345794, -0.043395, -0.221359, -0.383640, -0.022574, 0.033139, -0.033052, 0.232120, -0.022608, 0.032962, -0.090187, 0.123624, -0.351456, -0.036086, 0.106469, 0.008167, 0.284012, -0.096844, 0.093128, 0.242009, 0.078265, 0.165325, -0.199042, 0.295033, 0.235899, 0.299824, 0.129701, -0.012233, -0.233210},
    {-0.075565, -0.121280, 0.027685, 0.009100, 0.271097, -0.069432, 0.091320, 0.342811, 0.089078, 0.251436, 0.315783, 0.306221, 0.104266, -0.439836, -0.184873, -0.114484, 0.032300, 0.416456, 0.168164, 0.055697, -0.156780, -0.277122, -0.530540, -0.119544, -0.434826, -0.203477, 0.146368, -0.343057, 0.335295, -0.047552, -0.007640, 0.311828, 0.144774, 0.032067, -0.073981, -0.282413, 0.287080, 0.531304, -0.070785, 0.494742, -0.177507, 0.169050, 0.224950, 0.227846, -0.078332, 0.091168, 0.046838, 0.426328, 0.327136, -0.005824, -0.070371, -0.162445, -0.204466, -0.039856, 0.335226, 0.060617, -0.176867, 0.122919, -0.030435, 0.300845},
    {0.235704, 0.103120, -0.390088, -0.630506, -0.332486, -0.053359, -0.182731, -0.302885, -0.337072, 0.007499, -0.137271, 0.037886, 0.031982, -0.206875, -0.280738, -0.271450, -0.282096, -0.193182, 0.059644, -0.078384, -0.069474, -0.298785, -0.105620, -0.265956, -0.306569, -0.137841, -0.140167, -0.309900, 0.552875, 0.111306, 0.028203, -0.072261, 0.392092, -0.288186, -0.324434, -0.292977, 0.145955, -0.083730, -0.520984, -0.052696, 0.114242, -0.606002, -0.190907, 0.253775, -0.308993, -0.049262, -0.281305, -0.206766, -0.089127, -0.196607, -0.002857, -0.234623, 0.032481, 0.270211, -0.443205, -0.168762, 0.180613, -0.242989, -0.209324, 0.396302},
    {-0.228340, 0.232996, -0.314152, -0.007966, -0.165511, -0.269495, -0.341259, -0.014532, -0.230675, 0.427744, 0.340087, 0.124417, 0.189003, 0.019925, 0.199024, 0.160723, -0.195244, -0.140672, -0.155407, -0.284715, -0.345447, -0.233925, -0.127590, -0.342594, -0.339827, -0.153580, 0.260811, 0.005878, -0.005925, -0.167416, 0.310323, 0.194176, -0.054017, 0.209917, 0.485838, -0.350644, 0.221051, -0.154340, -0.170786, 0.058364, -0.219104, -0.275780, -0.068243, 0.000634, 0.284134, 0.139522, 0.174879, 0.434255, 0.549514, -0.235391, -0.429246, 0.061072, -0.190525, 0.374630, -0.230720, 0.334107, -0.148382, 0.078302, 0.367735, -0.077366},
    {0.227024, -0.024162, -0.399380, -0.118552, -0.322751, -0.083798, 0.134633, 0.042405, 0.010014, -0.074697, -0.050475, -0.037551, 0.070157, 0.137575, 0.242611, 0.057208, -0.073645, -0.067442, -0.115737, 0.060735, -0.093909, -0.101443, -0.214239, -0.390383, -0.148158, 0.004245, 0.349098, -0.102016, 0.357509, 0.021494, 0.097876, 0.219512, -0.162621, 0.039699, -0.068843, 0.047877, 0.128398, 0.081787, -0.279085, 0.201547, -0.000176, -0.121098, -0.065389, -0.320174, 0.119567, 0.155348, 0.303136, 0.086904, -0.175128, 0.405998, -0.130869, 0.100130, -0.137062, -0.085304, -0.013116, -0.333397, -0.080944, 0.279374, 0.121051, -0.053577},
    {0.458855, -0.076347, 0.120154, -0.269922, 0.245645, 0.673377, 0.497921, 0.691594, 0.645567, 0.275896, 0.200887, 0.067571, 0.047328, -0.028001, 0.230989, 0.141345, -0.015169, 0.190032, -0.122624, -0.172861, -0.570029, -0.293295, -0.341081, -0.542444, -0.513100, -0.564353, -0.307111, 0.192958, 0.515779, 0.549653, -0.155023, 0.019597, 0.127387, 0.293979, 0.034240, -0.353722, 0.345906, 0.059947, 0.191651, 0.109504, -0.019073, -0.402625, 0.009864, -0.228964, 0.175167, 0.039671, -0.172139, 0.148267, -0.212379, 0.580042, -0.150822, -0.270568, -0.464542, -0.209627, 0.397394, -0.441910, 0.080074, 0.060234, -0.140926, 0.426462},
    {-0.286506, -0.065213, -0.005040, 0.022810, 0.371548, 0.164781, 0.223631, 0.425917, 0.528364, 0.317767, 0.495683, 0.284657, -0.215371, -0.228195, -0.408258, 0.058132, 0.383316, 0.250503, 0.135993, 0.047829, 0.177042, 0.027368, -0.321814, -0.391415, -0.483737, -0.745764, -0.306166, 0.359211, 0.033342, -0.107201, 0.137817, -0.146951, 0.044597, 0.204264, 0.189638, 0.202638, 0.302819, 0.264988, -0.448171, 0.266767, -0.074527, 0.014298, 0.210116, -0.083253, -0.401103, 0.414623, 0.080208, 0.434642, 0.428096, 0.239584, -0.400793, -0.034363, -0.116262, -0.337306, 0.122261, 0.088134, -0.108736, -0.053765, 0.238467, 0.205581},
    {0.210440, 0.078388, -0.058757, -0.338051, 0.077084, -0.063133, 0.306248, 0.295666, 0.229072, 0.147977, -0.021268, 0.046093, 0.044292, 0.191672, 0.413210, 0.258025, 0.350945, 0.077232, -0.035087, 0.204531, 0.300112, 0.324197, 0.651558, 0.792979, 0.993630, 0.419323, -0.225067, 0.179515, 0.197174, 0.001824, -0.248656, -0.263876, -0.345456, 0.321283, 0.285056, 0.082908, 0.319383, -0.292260, -0.008954, 0.230341, -0.190294, 0.198426, 0.220546, 0.089702, 0.132371, 0.513713, 0.071882, 0.266660, 0.325705, 0.174908, -0.704774, -0.112930, -0.487722, 0.142579, -0.205076, 0.059894, -0.131984, 0.172717, 0.248142, 0.098898},
    {-0.202004, -0.126618, -0.350185, 0.039128, 0.372890, 0.282585, 0.322542, 0.167737, 0.100886, 0.064486, -0.043525, -0.040418, -0.016664, -0.040480, 0.157540, 0.000690, 0.027449, 0.104272, 0.020534, 0.102568, 0.252614, 0.224482, -0.114505, -0.032891, 0.018065, 0.224663, 0.348822, -0.175389, 0.282767, 0.026228, -0.242417, 0.293017, 0.174765, 0.316060, -0.090353, 0.002299, 0.343548, 0.041436, -0.083265, 0.233482, -0.000457, -0.197406, -0.344348, -0.221944, -0.514319, 0.224329, 0.176044, 0.056404, 0.274574, -0.067852, 0.313679, -0.068870, -0.334219, -0.041137, -0.058610, -0.033589, -0.239890, 0.030740, 0.300734, 0.334698},
    {-0.012146, 0.326252, -0.170518, 0.234513, 0.255602, 0.145153, 0.411913, 0.275237, 0.316312, 0.223706, 0.520188, 0.503974, 0.220403, -0.165125, -0.328609, -0.368741, -0.313167, 0.124304, -0.116390, 0.259241, 0.240080, -0.064267, -0.065201, 0.100412, 0.072854, -0.012202, 0.111588, -0.629559, 0.186473, -0.092780, 0.194495, 0.140875, -0.163790, -0.114549, 0.417851, -0.139803, -0.019943, 0.511394, -0.059768, 0.455120, -0.172644, -0.320644, 0.234057, -0.360764, 0.026483, 0.075292, 0.122205, 0.196232, 0.477307, -0.348532, -0.218953, -0.210400, 0.014181, -0.143469, 0.148144, 0.204527, -0.226412, 0.033948, -0.165257, -0.100450},
    {0.142530, 0.110171, 0.221321, 0.030758, 0.051605, 0.398107, 0.222663, 0.433676, 0.183292, 0.136465, 0.285587, 0.010341, -0.025366, 0.061494, 0.098488, -0.034529, 0.084377, -0.070593, 0.122754, 0.243559, 0.361600, 0.401708, 0.191456, 0.309712, 0.003919, -0.195389, -0.116182, 0.702863, 0.279310, 0.023122, -0.060466, 0.179417, -0.188595, 0.518384, 0.074158, -0.195383, 0.314669, 0.220981, -0.409092, 0.126757, -0.335946, -0.256586, -0.060176, -0.033390, -0.342419, 0.218169, 0.025488, 0.547900, 0.544048, -0.064063, 0.073541, -0.291750, -0.141493, 0.236618, -0.281194, 0.048956, -0.186335, -0.135528, 0.194974, 0.158624},
    {0.185920, 0.128164, -0.227194, -0.123068, -0.105365, 0.074895, -0.036639, 0.283222, -0.115346, 0.145783, 0.029783, -0.142179, -0.036381, -0.073887, 0.091779, -0.099269, -0.053669, -0.328572, -0.110946, -0.150526, 0.044104, -0.005504, 0.048138, -0.147795, 0.014373, 0.215768, 0.055238, 0.409781, -0.094655, 0.217868, -0.046306, 0.156727, 0.012397, 0.204192, -0.073593, -0.094343, 0.179823, 0.132194, -0.103994, -0.020953, 0.127341, -0.370201, -0.390585, 0.013619, -0.201971, 0.308733, -0.103586, 0.235512, -0.034441, 0.264396, -0.001522, 0.078723, 0.026104, 0.211826, 0.050018, 0.109156, 0.477595, 0.144144, -0.033734, 0.252642},
    {-0.064939, -0.038295, -0.307548, -0.319549, -0.553612, -0.324875, -0.573950, -0.382554, -0.421480, -0.456694, -0.222914, -0.025566, 0.096303, 0.123429, -0.158886, -0.172830, -0.095195, -0.148717, -0.147017, 0.112420, -0.091279, 0.082833, 0.133969, -0.052729, -0.232961, -0.133719, 0.206155, -0.066024, 0.015772, -0.207746, -0.106180, -0.211853, 0.261334, 0.077200, -0.149567, -0.167753, -0.089808, -0.136609, -0.252103, 0.010626, -0.112153, -0.256157, -0.186602, 0.029482, -0.238808, -0.127563, -0.221606, -0.048010, 0.239764, -0.393807, -0.231172, 0.042000, -0.207600, 0.245814, -0.321619, -0.459961, -0.096757, -0.554196, -0.163517, 0.231869},
    {-0.049414, 0.397716, -0.230763, -0.493172, -0.357246, -0.570143, -0.270517, -0.205313, -0.120250, 0.132234, 0.077167, 0.275420, 0.396373, 0.281415, 0.150241, -0.207534, -0.504213, -0.265472, -0.339110, -0.847075, -0.879563, -0.906502, -1.008477, -0.877548, -0.628891, -0.201470, 0.270307, 0.427421, 0.041307, -0.059771, 0.095279, -0.072140, -0.091722, -0.023448, 0.132901, -0.223878, 0.178166, 0.158121, -0.183655, 0.172963, -0.275776, -0.289256, 0.075650, -0.459605, -0.273350, 0.277928, 0.134335, 0.252008, -0.237166, -0.121410, 0.576283, -0.014201, -0.386304, 0.340469, -0.013739, 0.017326, -0.235289, -0.193968, -0.205931, 0.075176},
    {0.195070, 0.517206, 0.602891, 0.327495, 0.060535, -0.154549, 0.036635, -0.041337, -0.204781, 0.130266, 0.107898, 0.476112, 0.676100, 0.317692, 0.099385, -0.220959, -0.107998, -0.072993, 0.044702, -0.100275, 0.250071, 0.113776, 0.276709, 0.362162, 0.475440, 0.297067, 0.358866, 0.256102, 0.176967, 0.137471, 0.133448, 0.037383, -0.209822, -0.044621, -0.428068, -0.264891, 0.260487, 0.190360, -0.323038, 0.083795, 0.301784, 0.086445, -0.192841, -0.301760, -0.124999, 0.120566, 0.029401, -0.020873, 0.231547, -0.028629, -0.522865, 0.055298, -0.062196, -0.132340, -0.191322, 0.169714, -0.342739, 0.001034, 0.097175, 0.215650},
    {0.158142, 0.063109, -0.117895, -0.065821, 0.259888, 0.118781, -0.029838, 0.067904, 0.004975, 0.236123, 0.112914, 0.048200, 0.130135, 0.224196, 0.394806, 0.005976, -0.197085, 0.100862, 0.087240, -0.014330, -0.095180, -0.002225, 0.390456, 0.261470, 0.179092, 0.015302, 0.366897, -0.070904, 0.445696, -0.058399, 0.113473, 0.174276, -0.240934, 0.505542, -0.000419, 0.038230, 0.122866, 0.036422, -0.422214, 0.015102, -0.130672, -0.039224, -0.232237, 0.233777, -0.485826, 0.437530, -0.013430, 0.228792, 0.342713, 0.027992, -0.283462, -0.349038, -0.226502, -0.054625, 0.194245, 0.252758, -0.282720, 0.110145, 0.118173, 0.009624},
    {-0.265244, 0.217435, -0.009521, -0.348447, 0.136589, 0.163955, 0.259827, 0.074098, 0.233681, 0.161342, -0.009277, -0.333703, -0.306582, -0.454626, -0.325629, -0.441792, -0.330247, -0.281341, -0.214323, -0.415145, -0.321617, -0.402873, -0.390293, -0.267224, 0.032241, 0.278198, 0.489265, 0.145088, -0.115016, -0.060163, 0.076054, -0.112668, -0.148440, -0.200671, -0.042393, 0.027917, 0.271578, 0.290634, -0.423268, 0.075948, -0.314004, -0.461551, 0.209204, -0.126320, 0.114038, -0.119818, 0.352793, 0.026947, -0.021479, 0.198498, 0.032089, 0.043409, -0.017054, 0.027918, -0.432733, 0.166146, 0.056832, -0.040228, -0.230691, 0.050514},
    {0.020246, -0.118414, -0.106971, 0.113177, 0.313516, 0.432892, 0.563961, 0.274150, 0.259204, 0.059375, 0.256242, 0.119633, -0.364497, -0.566270, -0.248686, -0.081355, -0.177151, -0.154252, -0.171232, -0.192286, -0.190877, -0.390465, -0.085501, -0.329142, -0.382407, -0.066774, 0.139033, -0.142122, 0.074672, 0.075268, 0.205325, -0.090797, -0.091195, -0.098357, 0.129960, 0.073707, 0.183767, 0.013749, -0.322369, -0.067164, 0.027025, -0.048112, 0.097256, -0.210949, -0.436781, 0.164658, 0.134220, 0.429192, 0.983832, 0.136213, -0.105343, 0.177483, -0.061974, -0.115893, 0.421449, -0.089373, 0.137177, -0.194595, -0.095234, 0.102803},
    {-0.160584, -0.104264, -0.193611, -0.042081, -0.004057, -0.014264, -0.040847, 0.202361, 0.156622, 0.284714, 0.362721, 0.181471, -0.075668, -0.095713, 0.122108, -0.022869, 0.040708, -0.004876, -0.330277, -0.093270, -0.107092, -0.054221, 0.156016, -0.128730, -0.150009, -0.257897, -0.122569, -0.144399, -0.043263, 0.144487, 0.058087, 0.122974, -0.208246, -0.145155, -0.133739, -0.051630, 0.250120, 0.054169, -0.552577, 0.330429, -0.043449, -0.247650, 0.440099, -0.214039, 0.245275, 0.039776, -0.246267, 0.122647, -0.305515, 0.342241, 0.132881, 0.000482, 0.013542, -0.010911, -0.041035, -0.021268, 0.004961, 0.164508, -0.438529, 0.022433},
    {0.303219, 0.422487, 0.337418, -0.055717, -0.315778, -0.267000, 0.088033, 0.388211, 0.171268, 0.098610, 0.071300, -0.065921, -0.155994, 0.209975, 0.097707, 0.160042, -0.035095, -0.196364, 0.188896, 0.407745, 0.413156, 0.621596, 0.716329, 0.655007, 0.605349, 0.082090, -0.013653, 0.458810, 0.685615, 0.271149, 0.068217, 0.173826, -0.165972, 0.131698, 0.294720, -0.101694, 0.278170, 0.059651, 0.120695, 0.209966, 0.108601, -0.225355, 0.225736, 0.203139, -0.629790, 0.249369, 0.069819, 0.212664, 0.178798, -0.004779, -0.080267, -0.043259, -0.102877, -0.135758, 0.194191, -0.315491, -0.023276, -0.051091, -0.050541, 0.100179},
    {0.088980, 0.353076, -0.034780, -0.147140, 0.067548, 0.085921, -0.178728, -0.158990, 0.019860, 0.219092, 0.181823, 0.164253, -0.142499, 0.038490, 0.007060, 0.023370, 0.003914, -0.022636, -0.144344, 0.163669, -0.192451, -0.281541, -0.203691, -0.126054, -0.227486, -0.081088, -0.194536, 0.094646, 0.377779, 0.203782, -0.190923, -0.158021, -0.162940, 0.352461, 0.046570, -0.154334, 0.367762, -0.437222, 0.058903, 0.210295, -0.423289, -0.187975, 0.220387, -0.082941, -0.258968, 0.059300, 0.109184, 0.356633, 0.576667, 0.238778, -0.576175, -0.259792, -0.379086, -0.197848, 0.170087, 0.186830, -0.254859, -0.024866, 0.463056, 0.196458},
    {-0.113730, 0.082305, -0.150570, -0.420204, -0.101864, -0.045526, -0.067495, 0.178176, 0.438172, 0.323363, 0.003253, -0.132571, -0.396456, -0.086323, -0.001837, -0.151150, 0.231686, 0.106950, -0.093170, -0.150291, -0.084603, 0.191736, 0.058469, 0.020990, -0.252378, -0.308982, -0.481015, -0.339392, -0.090923, 0.243099, -0.008018, 0.224117, -0.114843, 0.011175, -0.023230, -0.026775, -0.091025, 0.002768, -0.032918, 0.229497, -0.051265, -0.005525, 0.237811, 0.177068, 0.160739, 0.374076, -0.100730, -0.098098, 0.044328, 0.638643, -0.234109, 0.118469, -0.024759, -0.033735, 0.011294, -0.080783, 0.225376, 0.472879, -0.184037, -0.127145},
    {0.133495, -0.119055, -0.052951, -0.026125, -0.305101, -0.025617, 0.049819, 0.368571, 0.495163, 0.103753, 0.200004, -0.151015, -0.072829, -0.002637, 0.181085, 0.249865, 0.191288, -0.206895, -0.341058, 0.017513, -0.094723, -0.113246, -0.281331, -0.299122, 0.123732, 0.126976, 0.454794, -0.125829, 0.604419, -0.022112, 0.075663, 0.121802, 0.105749, 0.243447, -0.106128, -0.164591, 0.117388, 0.455888, -0.139353, 0.372001, -0.188329, -0.744800, 0.355784, -0.924949, -0.778476, 0.022980, -0.008885, 0.214915, 0.047932, 0.490988, 0.098387, -0.341179, -0.274028, 0.054947, 0.160374, -0.390990, -0.073714, -0.050402, 0.108403, 0.056792},
    {0.164063, 0.060331, 0.273064, -0.174177, -0.060399, 0.030519, -0.229843, 0.004078, 0.129225, 0.039431, -0.013690, 0.004048, 0.061386, -0.033127, -0.091197, -0.007786, 0.169599, 0.097446, 0.380283, 0.444544, 0.328686, 0.176972, 0.023474, -0.235735, -0.358078, -0.634337, -0.312484, 0.131215, 0.193860, 0.149330, -0.017314, 0.344175, 0.189997, 0.336458, 0.330081, -0.107848, 0.361731, 0.234751, -0.193379, 0.158365, -0.056197, -0.303474, 0.365635, -0.114751, -0.352539, -0.173854, -0.060352, 0.391091, 0.322995, 0.047999, 0.114608, -0.082218, -0.041894, 0.163965, 0.031982, -0.133592, -0.290848, 0.162677, 0.006373, 0.252679},
    {-0.260209, -0.113782, -0.021936, 0.113774, 0.127822, 0.007892, 0.109633, 0.046808, 0.140842, 0.157175, 0.189959, -0.217457, -0.258611, -0.327826, -0.271790, 0.031698, 0.193081, 0.035311, 0.180365, -0.105795, 0.066609, 0.069798, 0.362774, 0.313026, 0.224266, 0.529251, 0.168428, 0.224170, 0.452169, 0.278559, 0.239520, -0.098976, 0.073869, 0.121125, -0.355635, 0.064465, -0.049865, -0.020967, -0.251760, -0.178614, 0.124691, -0.259450, -0.327795, -0.322135, -0.072272, -0.096105, 0.051430, 0.072024, 0.080157, 0.399120, 0.220175, -0.037220, -0.285811, -0.166661, 0.002184, -0.614022, 0.009795, 0.073785, 0.154267, 0.315540},
    {0.020975, 0.269218, -0.136570, 0.162008, -0.049289, 0.002896, -0.050759, 0.368377, 0.080409, 0.078204, -0.010528, 0.041699, 0.059335, -0.087682, -0.267888, -0.163875, -0.017500, 0.122628, -0.076636, -0.192481, -0.209081, -0.166155, 0.059972, 0.028925, 0.189393, 0.094705, 0.041051, -0.181453, -0.011955, -0.059337, 0.235097, -0.011712, -0.176286, -0.027182, -0.203490, 0.032838, 0.023645, 0.104538, -0.179371, 0.100052, -0.082948, -0.072320, 0.160924, -0.054748, -0.253921, 0.639139, -0.182125, 0.289375, 1.076788, -0.094058, -0.415240, -0.023523, -0.191457, -0.171882, -0.048201, -0.127290, -0.229847, -0.188870, 0.094899, -0.081238},
    {0.348195, -0.037626, 0.118130, 0.118005, 0.307975, 0.177462, 0.192103, 0.283673, 0.316347, 0.326188, 0.016367, -0.028528, 0.020314, 0.165165, 0.139409, 0.248404, 0.022676, -0.095302, 0.047921, 0.041200, -0.044922, -0.109089, -0.570693, -0.826197, -1.019503, -0.643006, -0.037460, 0.265412, 0.238112, 0.162506, 0.027907, -0.247728, -0.003724, -0.027590, -0.169541, -0.034883, 0.212876, 0.644841, -0.243155, 0.267120, 0.009193, 0.217007, -0.107184, 0.466978, -0.067732, 0.070095, 0.158907, 0.291067, -0.285058, 0.086479, 0.363419, 0.048994, 0.087625, 0.085478, -0.086245, -0.189728, -0.025916, 0.011635, -0.015508, 0.051801},
    {0.202049, 0.325038, 0.021885, 0.014003, 0.252663, -0.301507, -0.040669, -0.281439, -0.184529, -0.155307, -0.230665, -0.118596, -0.019078, 0.091228, -0.141349, 0.071342, -0.031570, 0.080481, -0.122623, 0.151542, -0.035402, -0.052995, 0.032489, 0.231181, -0.099311, -0.414051, 0.030189, 0.206205, 0.081706, 0.230213, -0.253007, -0.081005, 0.182493, 0.314700, -0.189922, -0.205303, 0.134912, -0.283067, 0.020528, 0.093065, -0.096824, -0.211084, -0.417855, 0.006207, -0.193802, -0.214595, -0.006947, 0.276693, 0.116293, 0.042900, -0.368122, -0.319217, -0.358847, 0.231476, 0.460134, -0.277772, 0.081627, -0.044390, -0.133631, 0.158683},
};

static FP_TYPE Bias0_f[32] = {
    0.396579, 0.179828, 0.429382, 0.480238, 0.182424, 0.568335, 0.671893, 0.153780, 0.544032, 0.608831, 0.070692, 0.466552, 0.397876, 0.326673, 0.635228, 0.282226, 0.164278, 0.357492, 0.168599, 0.796662, 0.441305, 0.358123, 0.281135, 0.326407, 0.515010, 0.289823, 0.234492, 0.520942, 0.358920, 0.271649, 0.538858, 0.412130
};

// 候选门权重与偏置
static FP_TYPE Weight0_c[32][60] = {
    {-0.021879, 0.335286, 0.177800, 0.322524, 0.138218, -0.118029, 0.131686, 0.223732, 0.466367, 0.410738, 0.387542, 0.037560, 0.046570, -0.197567, -0.247201, -0.110312, -0.103470, 0.236856, -0.083499, -0.100190, 0.038132, -0.056833, 0.023662, 0.095608, 0.062460, 0.411007, 0.068440, 0.211964, 0.281796, -0.047608, -0.107772, 0.251932, 0.042291, 0.187483, 0.399598, -0.346621, -0.068007, 0.200246, 0.277671, 0.079117, -0.128904, -0.128828, 0.009575, 0.085644, -0.069003, -0.025504, -0.107940, 0.074581, 0.083544, -0.047795, -0.117663, -0.089814, 0.003571, 0.394931, 0.039238, -0.084778, -0.117927, -0.111013, 0.047433, -0.017508},
    {0.389487, 0.001459, -0.023705, 0.030996, 0.292314, 0.232423, -0.025252, 0.159672, 0.224493, 0.311686, 0.358468, 0.343095, 0.545910, 0.482982, 0.606583, 0.055259, 0.009396, -0.163716, -0.034518, -0.015049, 0.152382, 0.096897, 0.438313, 0.273971, 0.533637, 0.436867, 0.196487, 0.368750, -0.015288, 0.194072, 0.150736, -0.084682, -0.216340, -0.036315, -0.127333, 0.083437, 0.119320, -0.007361, -0.166366, -0.075677, 0.147612, 0.295682, -0.110336, -0.101463, 0.118296, -0.046853, 0.364212, 0.112210, 0.036335, 0.443336, 0.132325, -0.137676, 0.128793, -0.109375, -0.040653, -0.139204, -0.023356, 0.074189, 0.034538, 0.283124},
    {-0.054746, -0.344005, -0.444717, -0.262675, 0.076149, -0.199939, -0.145766, -0.050334, -0.313168, 0.005462, -0.083220, -0.001799, 0.072900, 0.014976, -0.050007, -0.234153, -0.204007, -0.222907, -0.282625, -0.212446, -0.375545, -0.174583, -0.261172, -0.358421, -0.170283, 0.067349, 0.159404, 0.502494, 0.209572, -0.259668, 0.303264, -0.101721, 0.115573, 0.145957, 0.060007, -0.102845, -0.001701, 0.011947, -0.161914, -0.162523, -0.153345, -0.270775, 0.057235, 0.443082, -0.167337, 0.159487, 0.165950, 0.059434, 0.014273, -0.049198, 0.029923, -0.102686, -0.039064, 0.208848, 0.127262, -0.219369, 0.140024, -0.384321, 0.131545, -0.141502},
    {0.215443, 0.430563, 0.477868, 0.269943, 0.180211, 0.100900, 0.307650, -0.033247, 0.236986, 0.126300, 0.039733, 0.165014, 0.424783, 0.680286, 0.079243, -0.252596, -0.241303, 0.043475, 0.061073, 0.203021, 0.052351, -0.001910, 0.080958, 0.083869, 0.238895, 0.088293, 0.227899, 0.053112, 0.042534, 0.259193, -0.071878, -0.035816, -0.189007, 0.008632, 0.231072, -0.178672, 0.096594, 0.139228, -0.057532, -0.169877, 0.086369, 0.260792, -0.023153, -0.352207, 0.251198, -0.305530, 0.132687, 0.115479, -0.255215, 0.197451, -0.108687, 0.180650, -0.052706, -0.244126, 0.246294, 0.035780, -0.052089, 0.242229, -0.041902, 0.006100},
    {-0.062115, 0.104553, 0.200213, -0.090642, -0.000567, -0.014886, -0.048525, 0.053205, 0.018625, 0.123810, -0.022919, 0.023019, 0.041125, -0.206791, -0.127424, 0.187856, 0.128461, 0.374819, 0.223524, 0.177252, 0.069670, 0.021810, 0.135277, 0.257417, -0.009916, -0.448547, -0.036987, -0.171464, -0.143994, -0.124772, -0.107396, 0.181839, -0.022812, 0.175708, -0.382772, -0.020628, 0.100180, 0.017017, 0.199601, -0.129478, 0.035324, -0.139061, -0.094629, -0.179790, 0.197829, -0.450607, -0.289351, -0.154647, -0.468105, 0.281909, 0.087188, -0.118360, -0.147278, -0.315264, 0.197793, 0.014718, 0.057296, 0.230261, -0.126888, 0.268762},
    {0.200647, -0.042746, -0.381730, -0.177936, -0.100208, -0.088269, 0.011029, -0.004671, -0.017792, 0.015447, -0.018392, -0.108486, -0.174374, 0.109943, 0.309421, 0.232361, 0.017490, -0.146848, -0.236450, -0.207479, -0.095548, -0.165867, -0.051129, -0.009983, 0.127811, 0.063912, 0.393427, -0.195167, 0.037149, -0.076821, -0.114840, 0.095873, 0.269376, 0.082677, -0.109061, 0.015739, 0.132692, 0.266170, -0.292532, -0.059561, 0.207842, 0.101146, -0.128955, 0.168610, -0.313739, 0.073948, 0.073665, 0.132521, -0.273599, 0.128754, 0.113856, -0.230380, 0.012949, 0.026392, 0.074583, 0.162057, 0.025206, -0.145530, 0.262748, 0.140851},
    {-0.460018, -0.193836, -0.095154, 0.076074, -0.078831, -0.126074, 0.036164, -0.101082, -0.100373, -0.144362, -0.065049, -0.043924, -0.068498, -0.128289, -0.180667, -0.198246, -0.089703, -0.046356, -0.109227, -0.068258, 0.105889, -0.131819, -0.024253, 0.151316, 0.034156, -0.117580, -0.070682, 0.103168, -0.178805, 0.142655, -0.196971, -0.048154, 0.020128, 0.309369, 0.032132, 0.034016, 0.327279, 0.072083, 0.218191, -0.000383, 0.037373, 0.311536, 0.084096, 0.192521, -0.056082, 0.404082, -0.016523, 0.051767, 0.685839, 0.055698, 0.219541, 0.131884, 0.102997, 0.391235, -0.237783, -0.245797, -0.151638, 0.253108, -0.019361, 0.249921},
    {-0.040767, -0.315703, -0.202356, -0.068786, -0.064852, -0.155042, -0.183836, -0.199439, -0.436830, -0.278578, -0.038550, 0.041736, 0.252916, 0.336178, 0.255644, 0.123221, 0.266186, 0.174180, -0.019794, 0.064504, -0.115062, -0.072951, -0.058992, 0.224768, 0.112491, -0.289325, -0.017338, -0.106672, 0.081549, -0.165070, 0.220379, -0.127151, -0.318513, -0.194604, 0.026471, 0.275956, -0.058397, -0.034735, -0.317826, -0.009542, -0.100138, 0.097495, -0.195638, -0.273021, -0.402206, 0.314008, 0.218816, 0.079382, 0.098037, 0.083102, -0.250722, -0.059955, 0.134035, 0.002407, -0.017152, 0.087266, 0.260326, -0.122796, 0.188186, -0.125732},
    {-0.014784, 0.106545, 0.014287, -0.191882, -0.415147, 0.144744, -0.091623, -0.002378, 0.122706, 0.172252, 0.190325, 0.217406, -0.183873, -0.005989, 0.223820, 0.708718, 0.540374, 0.392549, -0.108183, -0.072486, -0.258799, -0.152706, -0.337406, -0.026372, -0.215514, -0.114803, -0.196425, -0.134508, 0.124363, 0.266801, 0.076077, -0.074620, 0.212144, -0.037978, -0.343123, 0.151641, 0.133808, 0.214744, -0.171176, 0.109263, -0.194681, 0.314091, -0.048734, -0.074544, 0.011422, -0.026339, -0.224122, 0.019027, 0.044290, 0.385131, 0.292115, 0.063552, -0.120330, -0.209403, -0.294452, -0.188142, -0.099126, 0.192079, -0.011275, 0.026585},
    {-0.143331, 0.084757, -0.109686, 0.170398, 0.158531, -0.079511, 0.174049, -0.059415, 0.090457, 0.004152, 0.216984, 0.234274, 0.308509, 0.158895, 0.259062, 0.188399, 0.168301, 0.010319, 0.161176, -0.040781, 0.107471, -0.107536, 0.046680, 0.041877, 0.031473, 0.236200, 0.073153, 0.002452, 0.087517, 0.124173, 0.249126, 0.032891, -0.097323, -0.197840, 0.102661, 0.004603, -0.028384, -0.037196, -0.372593, 0.095482, -0.030166, -0.180004, 0.107784, -0.241364, -0.152683, -0.037903, 0.397459, -0.178119, 0.140984, 0.073507, -0.128474, 0.233174, -0.043914, -0.077843, 0.057780, -0.502783, 0.062675, -0.126097, -0.187542, -0.122546},
    {0.160085, -0.095108, -0.377452, 0.039693, 0.162440, 0.272961, 0.338784, 0.196026, 0.281791, 0.295553, 0.281834, 0.291425, 0.185782, 0.062313, -0.074563, -0.061121, -0.084054, -0.049964, -0.015843, -0.123631, 0.043794, -0.168135, -0.021793, -0.099663, -0.360489, 0.252956, -0.060338, -0.109777, -0.350554, 0.074878, -0.043078, -0.070477, -0.181898, 0.065099, -0.076348, 0.015815, 0.013692, -0.210601, 0.123336, 0.002440, 0.061916, 0.018449, 0.073822, -0.195497, 0.530269, 0.043386, -0.118061, 0.045915, -0.176990, 0.359365, 0.021066, 0.047267, 0.193887, -0.242274, 0.136337, 0.240974, 0.049614, 0.265640, -0.118266, 0.056292},
    {0.036499, 0.085185, 0.116058, 0.034986, 0.015192, 0.155245, -0.070313, 0.018703, 0.165483, 0.243132, 0.086317, 0.248896, 0.208762, 0.162184, -0.048070, 0.065830, 0.005999, 0.082530, -0.079848, 0.129626, -0.287528, -0.235941, -0.179912, -0.340308, -0.418492, -0.305854, 0.148868, 0.239418, -0.043688, -0.249725, -0.151583, -0.089477, -0.129496, 0.101856, 0.037923, -0.123494, 0.094850, -0.175326, 0.334441, 0.023995, -0.155704, -0.206449, 0.128089, -0.026520, -0.028368, 0.222626, 0.059609, 0.003965, -0.030064, 0.019900, -0.394732, 0.208655, -0.090559, -0.081181, 0.151200, 0.147387, 0.130920, -0.099213, -0.103596, 0.326518},
    {0.054604, 0.356985, 0.431711, 0.282434, 0.001643, -0.041928, 0.082408, -0.064475, 0.185296, -0.054227, 0.105785, -0.203971, 0.061471, 0.096272, 0.016318, -0.107094, -0.118524, -0.259362, -0.253425, -0.295241, -0.268241, -0.167619, 0.129696, 0.249250, 0.390910, 0.069664, -0.481327, -0.064015, 0.154867, -0.032963, 0.336691, 0.061648, 0.209295, 0.109601, -0.077470, -0.068972, -0.164886, -0.191199, 0.043213, -0.000042, -0.080930, -0.075864, -0.096664, 0.214169, -0.064758, 0.025357, -0.099863, -0.087395, 0.034223, -0.277144, 0.027584, 0.039376, -0.005854, 0.212976, 0.319680, -0.262925, -0.009437, -0.497205, -0.295548, 0.007041},
    {0.150564, -0.116898, -0.254322, 0.017138, -0.035546, -0.105447, 0.044811, -0.018449, 0.173635, 0.207161, 0.197329, 0.177044, 0.249344, 0.313164, 0.123367, -0.124575, -0.159005, -0.065866, 0.007715, -0.076888, -0.252554, -0.182878, -0.000484, -0.004423, 0.200347, 0.316467, -0.105100, -0.154928, -0.175909, 0.192304, 0.155272, -0.092205, -0.233682, -0.183313, -0.268093, 0.088832, 0.085793, 0.217982, -0.184189, -0.140951, -0.115833, 0.118608, -0.076939, -0.074863, -0.047499, 0.002874, 0.199879, 0.031449, 0.128597, 0.295450, -0.315716, -0.032102, -0.017118, -0.331085, -0.080039, -0.025998, -0.145437, -0.012815, -0.174138, -0.283996},
    {-0.176178, 0.074126, -0.200584, 0.143644, 0.006324, -0.141529, -0.064090, -0.142731, -0.138055, -0.053243, 0.166840, 0.158397, 0.258733, 0.164832, 0.128109, 0.059751, 0.138504, 0.072351, 0.231560, 0.197767, 0.340910, 0.354622, 0.668425, 0.592378, 0.378891, 0.083034, -0.502745, -0.555863, -0.095303, 0.044197, 0.045580, 0.069229, -0.021940, -0.036001, 0.118417, 0.012117, 0.031562, -0.270584, 0.278467, 0.106938, -0.140355, -0.009412, 0.219347, -0.237134, -0.060317, -0.212932, 0.238951, 0.034198, 0.039820, 0.015813, -0.636838, 0.232302, -0.185958, -0.092546, 0.125037, -0.010226, -0.041491, -0.175881, -0.020534, -0.052777},
    {-0.030474, 0.037443, 0.083631, 0.219299, 0.117669, -0.113886, 0.069342, -0.090459, -0.138797, -0.134565, -0.038470, -0.131490, -0.087737, -0.174293, -0.241052, -0.154187, -0.039053, -0.007234, 0.125658, 0.106030, 0.191862, 0.110744, -0.033913, 0.186499, -0.020436, -0.005472, -0.050236, 0.015986, -0.053698, 0.008201, -0.051224, -0.007817, 0.270808, 0.045548, -0.214905, -0.207961, -0.010938, 0.127321, 0.406120, -0.150953, -0.010252, 0.200223, -0.099285, 0.203816, 0.254674, 0.020882, 0.000663, -0.102562, 0.113949, -0.050243, 0.288707, 0.072832, -0.065441, 0.041339, 0.076809, 0.047342, 0.029337, 0.048505, -0.158500, -0.072208},
    {-0.016294, 0.208984, 0.028537, -0.049219, -0.389876, -0.272882, -0.200082, -0.059752, 0.091753, -0.020365, 0.165806, 0.292414, 0.361090, 0.329872, 0.160051, 0.124915, 0.084506, 0.116890, 0.011864, 0.023794, 0.070289, -0.115405, -0.032623, -0.153361, 0.066033, 0.056333, -0.050559, -0.404141, -0.292008, 0.170062, 0.033630, -0.038979, -0.102226, -0.182281, 0.170998, 0.084264, 0.065811, -0.230773, -0.513582, -0.052843, 0.096808, 0.185449, 0.246457, 0.302174, 0.158139, -0.161929, 0.223772, -0.123898, -0.110607, 0.146168, -0.273550, 0.071612, -0.057450, -0.146522, 0.033894, 0.016373, 0.054485, -0.090999, -0.256051, 0.109450},
    {0.349588, -0.233963, -0.109184, -0.406945, -0.272313, -0.253455, -0.156928, -0.056944, -0.182665, -0.166832, -0.100622, -0.118690, 0.022335, -0.017962, 0.012142, -0.026775, -0.198690, -0.284178, -0.338018, -0.273213, -0.210810, 0.202672, -0.161092, 0.106252, 0.539557, 0.196015, 0.469538, 0.356841, -0.167514, 0.265049, 0.188776, 0.034041, 0.161355, 0.136683, -0.288657, -0.069263, -0.049622, -0.036874, 0.113585, 0.176176, -0.166582, 0.221600, -0.039839, 0.382980, 0.015397, 0.217770, -0.027381, 0.020139, 0.038416, -0.219683, 0.168478, -0.064196, -0.040934, 0.074725, -0.332063, 0.207007, -0.025331, -0.218327, -0.103497, -0.084214},
    {0.004939, 0.010890, 0.108739, -0.160313, -0.224142, -0.126407, -0.165713, -0.200332, -0.248810, -0.401290, -0.451660, -0.372050, -0.454363, -0.000915, 0.081933, 0.370486, 0.077708, 0.088733, 0.129999, -0.015729, 0.060860, 0.027891, -0.246581, 0.019492, 0.013432, -0.230091, -0.379206, -0.308269, -0.103330, -0.259653, 0.158329, -0.213350, 0.218647, 0.148840, 0.130453, -0.174269, -0.051060, 0.176312, 0.075200, 0.057933, -0.239562, -0.307419, -0.085025, 0.097023, -0.319743, -0.085288, 0.068685, -0.044442, 0.222614, -0.327155, 0.283863, 0.250154, 0.037516, 0.099035, 0.273960, -0.013100, -0.077822, -0.109700, -0.184723, -0.219729},
    {0.310823, -0.042104, -0.180029, -0.166807, -0.182407, -0.219572, -0.189525, -0.346379, -0.345397, -0.111276, -0.179123, -0.215376, 0.193137, 0.221865, 0.139130, -0.059438, -0.033705, -0.243103, 0.058697, 0.098401, 0.161156, 0.247570, 0.290967, 0.065350, 0.203060, 0.018002, 0.095024, -0.046874, 0.109847, -0.208541, 0.290569, -0.087158, -0.134090, 0.255770, 0.188598, 0.002801, 0.059515, 0.131149, 0.013154, 0.057097, -0.139792, 0.094826, -0.294662, 0.331649, -0.278377, 0.273416, 0.053436, 0.135499, 0.580562, -0.218549, -0.111066, -0.051713, -0.233066, 0.198695, 0.236799, 0.118895, -0.292550, 0.003644, 0.109131, -0.108876},
    {0.052322, -0.356730, -0.045032, -0.369706, -0.164323, -0.124696, -0.086343, -0.206704, -0.122342, -0.232243, -0.162506, -0.129309, -0.322886, -0.393447, -0.311818, -0.359733, -0.167373, -0.032267, -0.081342, -0.127482, -0.104522, -0.054122, -0.180305, -0.210326, 0.080327, -0.079972, -0.294574, -0.047352, -0.134098, 0.187452, 0.103519, 0.111897, -0.021569, 0.289451, -0.465710, 0.033744, 0.087366, -0.021128, 0.136363, 0.237771, 0.013080, 0.003302, -0.008709, 0.121229, 0.247903, 0.214770, -0.115264, 0.161374, 0.056833, -0.220413, 0.167865, -0.033127, -0.259345, -0.075418, -0.145298, -0.154585, -0.097823, 0.009386, 0.015852, 0.217086},
    {0.172680, 0.190566, 0.148779, 0.015055, 0.257125, 0.521512, 0.831860, 0.759276, 0.653244, 0.672261, 0.602231, 0.620684, 0.306068, 0.251444, 0.091446, 0.093167, 0.133067, 0.180524, 0.107758, 0.102408, 0.129200, 0.085081, 0.002969, 0.027298, -0.054154, 0.245082, -0.143196, -0.366281, -0.192500, 0.065331, -0.032248, -0.102943, -0.074708, -0.108349, -0.090582, 0.048885, -0.107852, -0.067137, -0.041790, -0.182342, -0.010410, 0.103918, -0.033674, 0.011211, -0.154565, -0.311415, -0.051577, 0.045186, 0.338591, 0.006159, -0.131139, 0.032439, -0.006777, -0.323169, 0.381034, 0.133576, -0.019773, -0.106175, 0.080053, 0.213160},
    {-0.068436, -0.141700, 0.182544, 0.082565, 0.020392, 0.164933, 0.024069, 0.056549, 0.029032, 0.067807, 0.055880, -0.022726, -0.173109, -0.048163, 0.054087, 0.187892, 0.069113, 0.095750, 0.084858, 0.194584, -0.043380, 0.079149, 0.011439, 0.023247, 0.087407, 0.158022, -0.004538, 0.093916, 0.035093, 0.131983, 0.212375, 0.092081, -0.008989, -0.175814, -0.156866, 0.226532, 0.184125, 0.121745, 0.240160, 0.058474, 0.068831, 0.164889, -0.040777, -0.380944, 0.256375, 0.178005, 0.015943, 0.011106, -0.315776, 0.299626, 0.180046, 0.130966, 0.032335, -0.153080, 0.199702, -0.296014, 0.050415, 0.288550, -0.183902, 0.143043},
    {-0.403820, -0.547800, -0.298791, 0.094756, 0.202968, -0.022267, 0.064182, 0.206565, -0.016373, 0.040783, -0.073770, -0.275373, -0.138055, -0.239122, -0.048002, -0.199429, 0.022975, -0.373362, -0.369995, -0.054081, -0.121977, -0.053008, 0.078158, -0.087207, -0.337366, -0.318770, -0.308679, -0.423014, -0.185221, 0.028939, -0.067333, -0.113712, -0.192204, 0.151035, -0.014283, -0.008136, 0.010569, 0.192562, -0.015268, -0.050521, -0.160132, 0.232417, -0.118434, -0.128880, 0.334558, 0.261499, 0.271698, -0.149228, -0.059768, -0.155996, 0.209930, 0.122185, -0.199834, 0.174303, -0.076999, 0.058599, 0.209168, 0.209667, -0.135543, 0.205751},
    {0.017419, 0.062018, -0.239691, 0.123721, 0.045328, 0.103642, -0.092045, -0.171313, 0.001557, -0.087314, -0.077871, 0.029113, -0.363040, -0.467028, -0.374586, -0.191630, -0.027469, -0.181503, -0.047557, -0.047855, -0.159069, -0.203148, -0.107541, -0.124013, -0.472067, -0.092421, 0.040317, 0.355189, -0.013928, -0.191006, 0.378415, -0.052521, -0.188000, -0.032671, 0.394255, 0.193898, -0.129647, 0.067077, -0.463828, -0.113609, -0.023031, -0.049349, -0.200307, -0.240267, -0.360105, 0.245666, 0.077809, 0.167726, 0.183313, -0.210831, -0.252872, 0.035925, 0.105213, 0.023956, -0.075273, -0.061121, -0.059612, 0.003464, 0.042562, -0.168546},
    {-0.268898, -0.085996, 0.039669, -0.035531, 0.102328, 0.077802, -0.166934, -0.011281, -0.215965, -0.128861, -0.175011, -0.047820, -0.302213, -0.028325, 0.027420, -0.114728, -0.104276, -0.031227, -0.159386, 0.007639, -0.195901, -0.098191, 0.117207, -0.058723, -0.223519, -0.093315, -0.107308, 0.123167, -0.103081, 0.118648, -0.174300, 0.071566, 0.448046, 0.076401, -0.037339, -0.238683, 0.226936, 0.079384, 0.357155, -0.164981, -0.325175, 0.092050, -0.104860, 0.369004, 0.332450, 0.022393, -0.204855, -0.148447, -0.025175, 0.112673, 0.343710, 0.126790, -0.192745, 0.102561, -0.326497, 0.221825, -0.112794, 0.178385, 0.106126, 0.096895},
    {0.128851, 0.314795, -0.133653, 0.132446, 0.165585, 0.145988, 0.040437, 0.009820, 0.109533, 0.001537, 0.161721, -0.044337, -0.079641, -0.187034, -0.183678, -0.169119, -0.144471, 0.061139, 0.012265, 0.088112, 0.018067, 0.009705, 0.039792, -0.001770, 0.144554, -0.071276, -0.265730, 0.171140, 0.100021, -0.076007, 0.250080, 0.011958, -0.179934, -0.143364, 0.479616, -0.262329, -0.201761, 0.180420, 0.090365, 0.305023, -0.014131, -0.054341, -0.303637, 0.169083, -0.056403, 0.343844, 0.047339, 0.131125, 0.239460, -0.152885, 0.155146, 0.099119, -0.151983, -0.045665, 0.161819, 0.031209, -0.032166, 0.207861, -0.042061, -0.025014},
    {0.376120, 0.060425, 0.014655, 0.098701, 0.135103, -0.094709, 0.053297, -0.065329, -0.175303, -0.083774, -0.060225, -0.072005, -0.008759, -0.060846, -0.055344, 0.005526, -0.069437, 0.086990, -0.042584, 0.127063, 0.056380, 0.105555, 0.029516, 0.167127, 0.033657, -0.032310, 0.134741, 0.533765, 0.103764, -0.144276, -0.091173, -0.020910, -0.095771, -0.060774, -0.095867, 0.435585, 0.044409, 0.262645, -0.147412, 0.013334, -0.044096, 0.198771, -0.048029, -0.240870, -0.358672, -0.039675, 0.237965, 0.178500, 0.131755, -0.113175, 0.240938, -0.258685, 0.208113, -0.337128, -0.056328, 0.222028, -0.265321, 0.150151, 0.153696, -0.111581},
    {-0.251959, -0.118949, 0.103910, -0.102800, 0.066539, 0.195788, 0.393632, 0.186923, 0.046647, 0.288977, 0.123983, -0.336386, -0.582177, -0.217904, 0.014943, 0.145484, 0.039919, 0.039516, 0.066775, 0.097650, -0.018258, -0.075505, 0.056492, -0.213819, 0.013912, 0.238052, -0.026387, 0.410799, 0.156702, 0.023846, -0.144448, -0.060843, -0.064531, -0.147550, 0.384683, -0.161110, -0.235735, -0.364200, 0.003852, 0.076642, -0.092583, -0.056531, -0.254341, -0.047658, -0.066322, 0.072091, -0.220322, 0.065866, 0.392808, -0.026251, -0.082282, 0.130569, 0.069648, 0.236352, 0.245948, 0.325542, 0.184436, -0.015741, 0.112133, -0.144209},
    {0.245004, 0.183337, 0.104492, 0.412659, 0.378477, 0.358897, 0.558599, 0.491392, 0.415166, 0.520963, 0.464049, 0.286867, 0.368861, 0.087023, -0.185564, 0.052000, -0.036530, -0.030226, 0.040582, -0.042842, -0.015168, 0.049247, 0.058978, 0.108540, -0.274465, -0.216493, -0.057816, 0.084413, -0.249978, 0.009724, 0.067698, 0.109038, -0.171837, 0.061305, -0.204431, 0.285812, 0.171072, 0.208186, -0.504400, -0.104405, -0.089895, 0.072860, -0.007077, -0.290528, 0.020076, 0.095290, 0.193256, 0.323132, 0.299750, 0.357851, -0.199314, 0.043517, -0.074715, -0.243003, 0.122192, 0.181720, 0.096188, -0.004713, 0.072240, -0.078052},
    {0.304709, 0.115730, 0.116674, 0.149755, 0.418875, 0.150827, 0.236157, 0.127649, 0.158512, -0.023538, 0.045444, -0.147179, -0.097685, -0.023997, -0.041827, 0.014571, 0.215753, -0.004324, 0.014619, -0.088815, -0.189593, -0.109000, -0.304720, -0.294482, 0.007694, 0.194378, 0.165551, 0.351236, 0.302703, -0.039090, 0.346427, 0.051313, -0.162452, -0.079330, -0.161786, -0.286906, 0.088593, 0.111509, 0.047445, 0.068425, 0.111455, 0.069584, -0.274411, 0.247005, 0.100165, -0.012222, -0.018312, 0.147950, 0.152561, -0.232200, -0.166396, -0.235037, 0.049729, -0.024190, -0.024711, 0.335956, -0.174687, -0.217195, 0.145900, 0.098359},
    {-0.071197, 0.349994, 0.473185, 0.137046, 0.110712, -0.074338, 0.348318, 0.044891, -0.073612, 0.093281, 0.269368, 0.357356, 0.433678, 0.318399, 0.446295, 0.663523, 0.654885, 0.158356, 0.072983, 0.088536, 0.047565, -0.056601, -0.000041, -0.175582, 0.119983, 0.084904, 0.037698, -0.175229, 0.008641, 0.012606, 0.021808, 0.073630, 0.064171, 0.126367, -0.233501, 0.138257, -0.032600, -0.280385, 0.459912, 0.208814, 0.071495, 0.030169, -0.267019, -0.136113, 0.149616, -0.099172, -0.132538, -0.073922, -0.355696, -0.090905, -0.020285, -0.092462, -0.088737, -0.132422, 0.177729, -0.070762, 0.273531, 0.115988, -0.073218, 0.255794},
};

static FP_TYPE Bias0_c[32] = {
    0.140580, 0.117702, 0.249225, -0.135269, -0.487565, 0.017484, 0.012724, -0.209622, 0.119683, -0.078828, -0.378192, -0.088168, -0.038711, -0.122019, -0.247622, 0.264879, -0.199929, 0.287337, 0.095592, 0.186818, 0.268287, -0.103573, -0.304547, -0.108902, -0.036550, 0.104274, -0.015274, 0.289525, -0.170143, 0.042904, 0.001666, -0.199249
};

// 输出门权重与偏置
static FP_TYPE Weight0_o[32][60] = {
    {0.206360, 0.547082, 0.760572, 0.227189, 0.176601, -0.213626, 0.007072, -0.246589, -0.286207, -0.256862, 0.004908, -0.087368, 0.245590, 0.641507, 0.629863, 0.288970, -0.091989, -0.019579, -0.073187, -0.073594, -0.230322, -0.031020, -0.282578, -0.248237, -0.072034, -0.251216, 0.222266, 0.074308, 0.320997, -0.058116, 0.291702, 0.135414, -0.075160, 0.161928, -0.072412, -0.121595, 0.002424, 0.086465, -0.452993, -0.002650, -0.177018, -0.316063, 0.162468, -0.365883, -0.106480, -0.037986, -0.046097, 0.234700, 0.011778, -0.207148, -0.214462, -0.288261, -0.290893, 0.020452, -0.157548, -0.087788, -0.158764, -0.166245, 0.444619, -0.056460},
    {-0.009605, 0.285145, 0.085161, -0.109766, -0.369476, -0.379437, -0.272211, -0.108238, 0.018905, 0.040805, 0.097748, 0.117244, -0.157778, 0.151827, 0.224141, 0.227597, 0.144573, 0.264092, 0.027916, 0.323303, -0.008560, 0.108651, -0.233029, 0.056479, 0.294197, 0.332803, -0.152766, -0.505588, 0.287568, 0.314732, -0.185949, 0.728753, 0.122597, 0.646664, 0.602395, -0.061047, 0.433196, 0.237904, -0.273309, 0.051007, -0.523818, -0.073781, 0.094166, 0.149665, -0.518326, 0.263267, -0.034665, 0.537390, 0.692977, 0.318654, 0.188225, -0.536169, -0.422094, -0.032637, 0.256470, 0.123346, -0.127982, 0.251159, -0.056707, 0.266203},
    {-0.071874, 0.022269, 0.082150, -0.521925, 0.174039, 0.379198, -0.041072, 0.302711, 0.170052, 0.300666, 0.358169, 0.265132, -0.061847, -0.170207, -0.466963, -0.385393, -0.333707, -0.413176, -0.233390, -0.078379, 0.090272, 0.039065, -0.230885, -0.254737, -0.580100, -0.071052, 0.317268, -0.115341, 0.131841, 0.288221, 0.324991, -0.212524, -0.165147, 0.337303, 0.049814, -0.003549, 0.305494, 0.237953, -0.344350, 0.208869, -0.033315, 0.133267, 0.368579, 0.114700, -0.367919, 0.053035, 0.102965, 0.605387, 0.405480, 0.203249, -0.165188, -0.341732, -0.131763, 0.113316, 0.195405, 0.172806, -0.701088, 0.163591, 0.408185, 0.103270},
    {0.322601, 0.347339, 0.242845, 0.000014, -0.431057, -0.582819, -0.553724, -0.301906, -0.072630, -0.107009, 0.023340, 0.091686, 0.122686, 0.046157, 0.295202, 0.280000, 0.327079, 0.284185, -0.172943, 0.030951, 0.076081, 0.356525, 0.359006, 0.127298, 0.316078, 0.280272, -0.060129, 0.079917, 0.557335, 0.188029, 0.180091, 0.120520, 0.230191, 0.189952, -0.331451, -0.452110, 0.281096, 0.191675, -0.325838, 0.540216, 0.003617, -0.644270, 0.105944, 0.503678, -0.399601, 0.038865, -0.132845, 0.459671, -0.232178, 0.004768, 0.082649, -0.311869, -0.182039, 0.353320, -0.001446, -0.187238, -0.029344, -0.018245, -0.172051, 0.408920},
    {0.115230, 0.244353, 0.138061, 0.428307, 0.657261, 0.287948, 0.241654, -0.308898, -0.160183, -0.176510, -0.166721, 0.276600, 0.187348, 0.269277, -0.102713, -0.145767, -0.004390, 0.195592, 0.378890, 0.660856, 0.904027, 1.010811, 0.619763, 0.465042, 0.182438, -0.064589, -0.091936, 0.455123, 0.799131, 0.230912, -0.174844, 0.490345, 0.235611, 0.444145, 0.045433, -0.191269, 0.301380, 0.005360, -0.168624, 0.532681, -0.426953, -0.249625, 0.161929, -0.029997, -0.587600, 0.205507, -0.156498, 0.352380, 0.246469, 0.032402, 0.322185, -0.588544, -0.393386, 0.393706, 0.084783, 0.065438, -0.338765, 0.177418, 0.031056, 0.403351},
    {0.239564, 0.277068, 0.445536, 0.284265, -0.045300, -0.207562, 0.001855, 0.119307, 0.281070, 0.173982, 0.523264, 0.520159, 0.589329, 0.297380, 0.113117, -0.067199, -0.205323, -0.004325, 0.194491, 0.461405, 0.016435, 0.195286, 0.200622, 0.340669, 0.073696, 0.117680, -0.225348, -0.229211, 0.068222, 0.421784, 0.026937, 0.875955, -0.075695, 0.300663, 0.276109, -0.053147, 0.332763, 0.746140, -0.736612, 0.287457, -0.233473, -0.269621, 0.060580, -0.161486, -0.009400, 0.388587, -0.339703, 0.514800, 0.411697, -0.185251, -0.407260, -0.512795, -0.199750, -0.144789, -0.020529, 0.015477, -0.511624, 0.287374, 0.032869, 0.340460},
    {0.269023, 0.076592, -0.131471, -0.122553, 0.247109, 0.533578, 0.573926, 0.431409, 0.288807, 0.042109, -0.038455, 0.037383, -0.008409, -0.213304, 0.166467, 0.630142, 0.546542, 0.344791, 0.238610, 0.296952, 0.270499, 0.006250, 0.350456, 0.261844, 0.007712, -0.347655, -0.258542, -0.040829, 0.089134, 0.138876, 0.351581, -0.012122, 0.214757, 0.506178, 0.093305, -0.058831, 0.377378, -0.243561, -0.390868, -0.040597, 0.110060, 0.012000, -0.281137, 0.701390, -0.721840, 0.538234, -0.219362, 0.488633, 0.536180, -0.651098, -0.082515, -0.635994, 0.001558, 0.148749, -0.470276, -0.097651, -0.060885, 0.152076, 0.718168, 0.399013},
    {-0.126944, 0.465727, -0.075163, 0.202801, 0.295447, -0.009022, -0.183805, -0.380402, -0.286861, -0.081671, 0.298474, 0.646449, 0.643134, 0.195898, -0.120166, -0.427187, -0.319075, -0.060107, 0.181707, 0.103942, 0.132685, 0.147640, -0.011148, 0.298503, 0.305266, 0.107632, -0.097283, -0.610307, 0.128211, 0.620302, 0.122830, 0.336659, -0.291423, 0.342626, -0.152281, 0.024034, 0.190159, 0.286462, -0.763380, -0.114264, 0.047947, 0.092154, -0.486556, -0.230987, 0.155146, 0.430159, -0.154898, 0.185367, 0.428634, -0.216688, -0.077724, -0.104082, -0.134593, -0.174241, -0.655500, 0.755188, -0.512659, 0.280854, 0.364754, 0.113241},
    {0.200940, -0.021989, 0.065207, 0.222035, 0.105107, 0.237798, 0.306228, 0.088970, 0.059052, -0.262486, -0.062632, 0.014724, 0.116809, 0.428151, 0.720725, 0.547742, 0.218203, -0.074660, -0.053324, 0.306723, 0.228208, 0.415850, 0.317775, 0.136402, 0.315846, 0.329636, 0.271322, 0.268813, 0.679714, 0.251021, 0.295174, 0.298788, -0.026945, 0.518766, -0.043300, 0.093727, 0.474273, 0.837101, -0.707012, 0.237413, -0.330667, -0.347931, -0.260331, -0.375943, -0.542562, 0.269663, 0.143957, 0.493424, -0.019866, 0.169436, 0.030387, -0.424955, -0.216614, 0.194593, 0.166938, -0.393111, -0.251629, 0.161314, 0.320576, 0.205807},
    {-0.271058, -0.022953, 0.130859, 0.184846, 0.361095, 0.475331, 0.153290, 0.400410, 0.661944, 0.887096, 0.421147, -0.024026, 0.050413, 0.017233, 0.491610, 0.399269, 0.489515, 0.143522, 0.203231, -0.135108, -0.380681, -0.482261, -1.218869, -1.284372, -1.009786, -0.763533, -0.562375, -0.245101, 0.370470, 0.290549, -0.433639, 0.408017, -0.123658, 0.205502, 0.605477, -0.379897, 0.447158, -0.141448, 0.088224, 0.372685, -0.259310, -0.498705, 0.089564, -0.288367, -0.268287, 0.191319, -0.438211, 0.207654, 0.816401, 0.029102, -0.134217, -0.218656, -0.215378, 0.005177, 0.058228, -0.348816, -0.304004, 0.313602, 0.107444, 0.361977},
    {0.036997, -0.125272, 0.075654, -0.123518, 0.324387, 0.403854, 0.258727, 0.066096, 0.294192, -0.070319, 0.185789, 0.282228, 0.088125, 0.110838, 0.416310, 0.517414, 0.739436, 0.427102, 0.616711, 0.467457, 0.804291, 0.804759, 0.351228, 0.736124, 0.316344, -0.095720, 0.177021, 0.027159, 0.230815, -0.042454, -0.297503, 0.413868, 0.620495, 0.052374, -0.201660, 0.105507, 0.133533, -0.082830, -0.050673, 0.153097, -0.772235, 0.145613, 0.720722, 0.150557, -0.124930, -0.212214, -0.425735, 0.007531, -0.131166, 0.535600, 0.282870, -0.232316, -0.049500, 0.023245, 0.070210, 0.173590, -0.251388, 0.324030, -0.188535, 0.052211},
    {0.041673, 0.186930, -0.191477, -0.574464, -0.400446, -0.293837, -0.509623, -0.211727, -0.075450, -0.044496, 0.020349, 0.154532, 0.100974, -0.083226, 0.014403, -0.137613, -0.097331, -0.142525, -0.093955, -0.260200, -0.254721, -0.201173, 0.000873, 0.392064, -0.066174, 0.525665, 0.552406, 0.079347, 0.428021, 0.213269, -0.075691, 0.454422, -0.453002, 0.332843, 0.677262, -0.032635, 0.292599, 0.450844, -0.696859, 0.285590, -0.239380, -0.178119, 0.181479, -0.295236, -0.193574, 0.402324, -0.129444, 0.496465, 0.459946, 0.007579, -0.292832, -0.240278, -0.239418, 0.047049, -0.074491, -0.309876, -0.388317, 0.225007, -0.102585, 0.288359},
    {0.204163, 0.124017, 0.025592, 0.090963, 0.254729, -0.066293, 0.089959, 0.248531, 0.082496, 0.043452, -0.137524, 0.049176, -0.022726, 0.122337, -0.022340, -0.385873, -0.065983, -0.131950, 0.074389, -0.043381, -0.381157, 0.173250, -0.194436, -0.126461, -0.245695, -0.049493, 0.263478, 0.296887, 0.340715, 0.038141, -0.055466, 0.017978, 0.284397, 0.312159, 0.257859, -0.258231, 0.201313, 0.079785, -0.021616, 0.241862, -0.155531, -0.393108, 0.039873, 0.040588, -0.318710, 0.333487, -0.013970, 0.291036, 0.612412, -0.280087, -0.045575, -0.116962, -0.211665, 0.433306, -0.152974, -0.164852, -0.368741, -0.091913, 0.380010, 0.396386},
    {-0.013522, -0.183522, -0.379615, 0.333112, 0.340966, 0.372485, 0.151470, 0.381056, 0.602114, 0.514614, 0.324553, 0.287427, -0.075619, 0.172807, 0.048576, -0.235825, -0.414439, -0.120664, -0.158663, 0.157481, 0.178866, -0.020917, -0.104490, -0.074270, 0.148419, 0.089692, 0.125304, -0.677301, 0.472860, 0.417471, 0.250258, 0.643709, -0.137319, 0.420719, 0.114563, -0.087403, 0.057340, 0.400416, -0.338586, 0.170465, -0.109434, -0.215130, 0.259252, -0.475494, -0.014323, 0.301861, -0.789436, 0.418712, 0.783822, -0.137975, -0.096851, -0.326769, -0.146334, -0.275984, -0.289872, -0.017487, -0.450753, 0.284804, 0.207696, -0.040932},
    {0.060427, 0.060607, -0.112951, 0.031294, 0.156745, 0.081293, 0.089087, 0.168817, -0.017100, -0.144900, 0.024009, 0.113475, 0.177836, -0.051834, -0.206014, -0.053336, -0.101471, -0.172154, 0.024595, 0.095546, 0.035539, -0.279893, -0.088559, 0.168701, 0.255655, 0.240777, 0.073592, 0.465345, 0.468365, 0.388608, 0.195341, 0.602037, -0.149268, 0.650312, 0.174059, -0.445884, 0.176345, 0.358548, -0.413690, 0.094856, -0.466816, -0.359622, 0.156663, -0.025617, -0.426995, 0.514730, -0.307872, 0.492942, 0.940721, -0.152393, -0.240400, -0.468611, -0.211088, 0.206218, -0.352375, 0.328495, -0.602522, 0.135623, 0.191691, 0.173699},
    {-0.015968, -0.031879, -0.254972, -0.026611, -0.094691, 0.092310, 0.152970, 0.135021, 0.025249, 0.097860, 0.109426, 0.083472, 0.330282, 0.154266, 0.030196, -0.402644, -0.441413, -0.473623, 0.010499, 0.022020, 0.054807, 0.153044, 0.312341, 0.519979, 0.281077, 0.306736, 0.465237, -0.004840, 0.068954, 0.056534, 0.039398, 0.345616, 0.037819, 0.468862, 0.249118, -0.897226, 0.027665, 0.128469, -0.109695, 0.233158, 0.021678, -0.557087, 0.419199, -0.033349, -0.339311, 0.167699, -0.420144, 0.177794, 0.460709, -0.014554, 0.386914, -0.309403, -0.478670, 0.255951, -0.281167, -0.276053, -0.172335, -0.005250, -0.387997, 0.446674},
    {0.041605, -0.045226, 0.043995, -0.605560, -0.329358, -0.112247, -0.414345, -0.410372, -0.505534, -0.577529, -0.679989, -0.261953, 0.079233, 0.229734, 0.171996, 0.191181, 0.110641, 0.150726, 0.151893, 0.314845, 0.093963, 0.265029, -0.030025, 0.407835, 0.385801, 0.424842, 0.546915, -0.105240, 0.111107, 0.071573, 0.036955, 0.128971, 0.111366, 0.145864, 0.184517, -0.014004, 0.132535, 0.142361, -0.077441, 0.080779, -0.389368, -0.389771, -0.141022, 0.436806, -0.191015, 0.335429, -0.380754, 0.384770, 0.660142, -0.403417, -0.045325, -0.317589, -0.270320, 0.384558, -0.279849, -0.357100, -0.556847, 0.039831, 0.046045, 0.129840},
    {-0.017142, 0.089856, 0.128811, 0.127408, -0.258073, 0.106723, -0.007121, 0.182129, 0.170729, 0.076738, 0.038686, -0.068375, 0.094693, 0.312081, 0.334931, -0.015193, -0.385184, -0.503456, -0.605572, -0.616406, -0.735311, -0.841398, -0.676601, -0.916347, -0.684614, -0.302937, 0.314312, 0.462841, 0.064989, 0.085229, 0.009604, 0.088870, -0.191037, 0.366734, 0.198256, -0.219920, 0.159948, 0.050947, -0.129354, 0.125047, -0.431155, 0.128085, 0.073041, -0.069595, -0.083886, 0.549930, -0.154920, 0.388505, 0.192795, -0.170841, 0.190472, 0.107130, -0.301095, 0.432545, -0.367756, 0.304033, -0.230124, 0.237035, 0.113723, 0.099016},
    {0.096299, -0.142556, 0.373090, -0.369902, -0.558721, -0.077993, -0.555006, -0.276429, -0.300831, -0.208148, -0.119540, -0.245602, -0.005588, 0.272332, 0.787571, 1.099236, 1.056932, 0.514009, 0.307111, 0.399716, 0.287090, 0.392593, 0.291840, 0.417722, 0.080731, -0.355458, -0.481797, -0.536986, 0.261922, -0.062028, 0.026832, 0.122099, 0.617013, 0.619665, -0.279630, -0.113850, -0.003183, 0.354405, -0.653595, -0.008410, -0.036837, -0.597683, -0.145263, 0.781775, -0.420312, 0.171749, -0.268235, 0.360860, -0.703180, -0.449255, 0.661710, -0.193047, -0.255188, 0.135889, 0.020492, -0.047321, -0.194624, -0.320557, -0.178141, 0.182461},
    {0.493986, 0.207556, 0.028280, 0.138177, 0.549865, 0.548620, 0.446393, 0.195737, 0.030225, 0.128501, -0.226604, -0.031476, -0.312489, -0.279701, -0.265416, 0.099667, -0.056012, -0.200799, -0.058352, -0.221233, -0.143373, -0.220279, -0.143148, -0.103453, -0.253802, 0.034276, 0.367862, 0.687118, 0.218949, 0.150505, 0.047997, -0.130215, 0.055706, 0.284638, -0.139693, 0.006125, 0.199414, 0.252784, -0.379824, 0.136469, 0.012509, -0.179812, -0.064723, -0.124943, -0.498276, 0.412354, 0.249693, 0.225354, 0.255906, -0.143944, 0.147798, -0.040668, 0.132604, 0.119826, 0.112142, -0.035271, -0.061113, -0.115560, -0.195577, 0.070788},
    {-0.341685, -0.052112, -0.087231, 0.217384, 0.102457, 0.553840, 0.334584, 0.065994, 0.174911, 0.009312, 0.268323, 0.110747, 0.506915, 0.476885, 0.366874, 0.249214, 0.071306, 0.212920, 0.310115, 0.293868, 0.329622, 0.185788, 0.107336, 0.520513, 0.529336, -0.004910, -0.247065, 0.248435, -0.002734, 0.166464, 0.072660, -0.122904, -0.021582, 0.053383, 0.049273, 0.116786, 0.112346, 0.306058, 0.126952, 0.477094, -0.152003, -0.144376, 0.740473, -0.119469, 0.016085, 0.196064, -0.225268, 0.449421, 0.631445, 0.127397, 0.114519, -0.137085, -0.265782, -0.161974, -0.238777, 0.055151, -0.174751, 0.220750, 0.037076, 0.172136},
    {-0.033221, 0.184301, -0.026576, 0.301641, 0.030812, -0.157440, -0.130756, -0.206522, -0.310438, -0.340707, -0.317830, -0.201153, 0.040444, 0.077586, 0.426866, 0.336475, 0.268886, 0.145248, -0.019998, -0.099075, 0.053680, 0.215998, 0.120576, 0.239243, 0.444155, 0.333927, 0.430023, 0.179446, 0.298858, 0.314795, 0.223643, 0.305212, -0.139611, 0.124228, 0.404984, -0.061203, 0.497377, 0.311888, -0.594735, 0.473756, -0.028710, -0.186363, 0.464370, -0.263675, -0.577629, 0.773810, 0.100260, 0.673998, 0.748365, 0.149854, -0.251731, -0.085836, -0.334525, 0.140176, 0.289186, -0.268951, -0.028228, 0.064211, -0.297492, 0.084055},
    {0.071326, -0.164217, -0.087865, -0.045469, 0.183168, 0.011786, 0.100497, 0.299755, 0.348807, 0.309397, 0.429475, 0.227941, 0.135701, 0.358479, 0.210307, 0.217512, 0.077120, 0.075702, -0.079317, -0.172946, 0.052859, -0.175030, 0.225631, 0.370967, 0.264512, 0.049741, -0.091860, 0.134973, 0.330568, 0.345655, -0.100198, 0.319793, 0.053772, -0.033120, 0.077281, -0.521699, 0.296379, 0.049974, 0.060348, 0.235267, 0.026287, 0.051751, 0.536638, -0.102729, 0.093528, 0.081705, -0.980183, 0.059554, 0.284173, -0.021725, 0.353208, -0.116851, -0.056293, 0.118634, -0.055414, -0.360188, 0.079493, -0.238074, -0.358959, 0.134757},
    {0.504317, 0.137440, 0.021373, -0.257640, 0.009756, -0.063901, 0.141218, 0.136919, 0.330355, 0.087867, 0.054727, 0.051239, 0.149948, 0.171760, 0.528189, 0.309925, 0.110652, -0.160091, 0.183111, 0.316864, 0.465175, 0.352471, 0.571476, 0.665357, 0.441517, 0.114233, -0.037088, -0.072704, 0.680228, 0.234145, 0.272401, 0.220749, -0.331446, 0.263332, 0.346709, -0.393189, 0.259514, 0.195189, -0.201181, 0.357933, -0.285461, -0.397559, -0.039485, 0.147839, -0.527002, 0.598724, 0.004604, 0.322655, 0.122359, 0.119759, -0.108178, -0.234212, -0.154049, 0.259116, 0.273856, -0.409018, 0.173815, -0.151544, 0.273035, 0.072584},
    {-0.036823, 0.403517, 0.016003, -0.116336, 0.077555, -0.187400, -0.284131, -0.126733, -0.177089, -0.200463, -0.166830, 0.360751, 0.182887, 0.208338, -0.157786, -0.427444, -0.445829, -0.307977, -0.267145, -0.029796, -0.107760, -0.178720, -0.042894, 0.013162, 0.062785, -0.189489, -0.129893, -0.203989, 0.363305, 0.367542, 0.297397, 0.071201, -0.612886, 0.063319, 0.109846, -0.085500, 0.136648, -0.038439, -0.465043, 0.038565, -0.174809, 0.207753, -0.679126, 0.179955, -0.146190, 0.683533, 0.319805, 0.345114, 0.362854, -0.236236, -0.374753, -0.011083, -0.199159, 0.198599, -0.298847, -0.180159, -0.077603, -0.027302, 0.345047, 0.143740},
    {0.082766, -0.196964, -0.259835, -0.361027, -0.576891, -0.261021, -0.240963, -0.188844, 0.264413, 0.277621, 0.250672, 0.465278, 0.448218, 0.281854, 0.364606, 0.270933, 0.468137, 0.245619, 0.333492, 0.328749, 0.103497, -0.007383, 0.015447, -0.004333, 0.088471, -0.128201, -0.261775, -0.706908, -0.105183, 0.421470, 0.000270, 0.417313, 0.204857, -0.059891, 0.294851, 0.100406, 0.247569, 0.523969, -0.389578, 0.027248, -0.125894, 0.244528, 0.373744, 0.163321, 0.316368, 0.236854, -0.101251, 0.062859, -0.404433, -0.409254, 0.434543, -0.136195, -0.002935, 0.014272, 0.123411, -0.395232, -0.423863, -0.172060, -0.250028, -0.011227},
    {0.121566, -0.213007, -0.232557, 0.649199, 0.283561, 0.488713, 0.769557, 0.858145, 0.427880, 0.248374, -0.310175, -0.339429, -0.189388, 0.036490, -0.327143, -0.038958, 0.096685, 0.262401, -0.128573, -0.021845, 0.139703, -0.026255, -0.118751, -0.322711, -0.424484, -0.098223, 0.254288, -0.002270, 0.178332, 0.142174, 0.124515, 0.678128, 0.113115, 0.517448, 0.046735, -0.446147, 0.042082, 0.707826, -0.125595, 0.390021, -0.004457, -0.186604, 0.531954, -0.187534, -0.090263, -0.023411, -0.170722, 0.399171, 0.255744, -0.114539, 0.624819, -0.133135, -0.050165, 0.155031, 0.007472, 0.050573, -0.479279, 0.335604, -0.079676, 0.186041},
    {0.328718, -0.306011, -0.152356, -0.311221, 0.070416, 0.143128, 0.393172, 0.431850, 0.222023, 0.148840, 0.081384, 0.116275, -0.023143, 0.006482, 0.247051, 0.239234, -0.061925, -0.023011, 0.004026, 0.045071, -0.037603, -0.089042, -0.061652, -0.250118, -0.600060, -0.404193, -0.266581, -0.495399, 0.351067, 0.111384, 0.284433, 0.415456, 0.103488, 0.591277, 0.428169, -0.478849, 0.236876, 0.619311, -0.242638, 0.387711, -0.266566, -0.392142, -0.028245, -0.044697, -0.452240, 0.240560, -0.277925, 0.404568, 0.419486, -0.312852, 0.131761, -0.134132, 0.003758, 0.403794, -0.427734, -0.020172, -0.375017, 0.085150, 0.084029, 0.012211},
    {-0.136903, 0.169225, 0.266966, 0.327877, 0.423060, 0.465811, 0.353289, 0.277067, 0.170641, 0.001293, -0.108079, -0.064793, 0.030809, -0.050277, -0.141984, -0.275649, -0.089677, -0.091259, 0.172255, 0.242585, 0.073234, 0.139862, 0.233196, 0.151974, 0.139096, 0.058488, -0.162054, 0.024489, 0.497137, 0.439460, 0.414812, 0.186868, -0.021184, 0.429481, -0.509412, -0.021222, 0.310981, -0.011651, -0.216089, -0.094817, 0.061094, 0.022013, -0.280595, -0.223363, -0.360583, 0.200999, -0.058509, 0.304849, 0.196168, 0.082145, 0.173347, -0.359171, -0.269926, -0.258229, 0.001150, 0.063746, -0.002959, -0.026964, 0.464713, 0.185836},
    {-0.193779, -0.153058, 0.143877, 0.175948, -0.370587, -0.427974, -0.466585, -0.592660, -0.526544, -0.211676, -0.005160, -0.170319, 0.071754, -0.133913, 0.107349, 0.231345, -0.074810, -0.222711, -0.186865, 0.216455, 0.195849, 0.244965, 0.287432, 0.079141, 0.342163, 0.325298, 0.055627, -0.450905, 0.269284, 0.341569, 0.144603, 0.244623, 0.186987, 0.568266, 0.068343, -0.067602, 0.349229, 0.260653, -0.005539, 0.639522, -0.442306, -0.082096, 0.101426, 0.000261, -0.332731, 0.398695, -0.717154, 0.394675, 0.518405, -0.003716, 0.451652, -0.356807, -0.453844, 0.259922, -0.362721, -0.203725, -0.527148, 0.302317, 0.051450, 0.358794},
    {0.195869, -0.040543, -0.295874, -0.218660, -0.104364, 0.011871, 0.163413, 0.053031, 0.005352, -0.099837, 0.054503, 0.204873, 0.114291, 0.299165, 0.138968, -0.096809, -0.279304, -0.088511, -0.256285, 0.013224, -0.136700, -0.201122, -0.212865, -0.357385, -0.350995, -0.660775, 0.065304, 0.332204, 0.072459, 0.273190, 0.140994, -0.122788, -0.233991, 0.148291, -0.108135, 0.318593, 0.367674, 0.536103, -0.293404, -0.104971, -0.001475, 0.474096, -0.492441, 0.207199, -0.272990, 0.162399, 0.134930, 0.332172, 0.158488, -0.406885, 0.439494, -0.351320, -0.108567, 0.275735, -0.188368, -0.009886, -0.574156, 0.206470, 0.059347, 0.277150},
    {0.054205, 0.348615, 0.341986, 0.019258, 0.019395, -0.215641, -0.153071, -0.203795, -0.533010, -0.277735, -0.300973, -0.070742, 0.313662, 0.531939, 0.491077, 0.189439, -0.236444, -0.007169, 0.099783, 0.191410, 0.197220, 0.467421, 0.671747, 0.485713, 0.380665, -0.131899, 0.013772, 0.324214, 0.396120, 0.241598, 0.192218, 0.051088, -0.326082, 0.189496, -0.491153, 0.170913, 0.654442, 0.677350, -0.845054, 0.105901, -0.215010, -0.010121, 0.074708, -0.412270, -0.686603, 1.047607, 0.152793, 0.604563, -0.290059, 0.307236, -0.014338, -0.195757, -0.298907, -0.315635, -0.346532, -0.376563, -0.167206, 0.081421, 0.066194, 0.303597},
};

static FP_TYPE Bias0_o[32] = {
    0.559400, 0.627912, 0.716142, 0.590230, 0.599843, 0.947495, 0.442465, 0.396698, 0.902343, 0.604379, 0.699499, 0.482794, 0.405010, 0.712407, 0.396425, 0.286021, 0.506036, 0.512094, 0.681297, 0.548910, 0.520530, 0.760070, 0.264174, 0.465159, 0.776261, 0.793502, 0.230634, 0.704405, 0.631281, 0.545432, 0.517169, 1.045502
};

// 全连接层权重与偏置
static FP_TYPE Weight_lc[10][32] = {
    {0.098317, -0.025594, 0.624361, -1.277118, 0.007365, -0.118039, -0.982365, -0.182299, 0.550436, -0.735771, -0.159241, -0.333375, 1.477498, -0.008764, -0.429227, 0.616494, -0.338411, 0.446213, -0.789695, -0.364275, 0.174061, -0.516083, -0.471049, 0.045688, -0.344846, -0.099638, -0.119470, -1.015185, -0.208918, -1.299745, 0.334193, 0.547384},
    {0.140048, -0.553071, -0.565341, 0.598528, -0.716609, -1.047826, 0.068564, -0.119976, 0.426591, 0.747636, -0.425641, 0.345941, 0.125372, -0.089657, -0.135913, 0.883275, 0.081108, 0.377583, 1.065162, 0.265223, 0.075806, -0.607733, 1.081659, 1.280697, -0.291697, 0.402708, 0.963465, 0.127346, 0.814678, 0.209501, -0.437100, -1.497168},
    {0.275321, -1.056192, 0.138014, -0.789842, -0.691835, 0.112304, 0.378210, 0.006103, -1.363174, -0.800363, 0.014643, 0.626542, -0.463860, -0.324066, -0.142955, 0.014006, -0.355081, 0.649479, 0.696817, 0.261458, 0.211761, -0.515167, -0.003177, -0.212029, -0.237263, 0.171284, 0.450141, 0.652507, 1.179544, -0.738569, 0.268103, 0.076638},
    {0.220243, -0.591760, -0.130869, 0.593787, 1.499786, 0.103239, -1.776515, -0.689145, 0.319284, -0.795251, 0.070781, 0.425217, -0.257049, -0.399786, 0.802908, -0.635409, -0.000709, -0.283789, -0.293175, 0.194722, 0.094717, 0.524647, -0.903347, 0.026843, -0.169238, -0.739339, -0.769527, 1.847374, -0.230760, 0.146364, 0.367606, 0.026248},
    {0.135096, 0.413452, 0.120214, -0.133434, -0.734166, 0.004177, 0.361533, 0.623972, 0.382329, -0.043815, -0.333315, -1.211302, -0.011748, 0.869995, -0.915859, -0.240141, 0.201767, -0.035033, -0.419326, 0.138767, -0.457550, 0.339696, -0.133790, 0.078598, 1.289806, 0.111855, -0.291456, 0.320232, -0.214923, 0.599449, 0.120182, -1.271427},
    {-0.064371, 0.414317, 0.640816, 0.500359, 1.475260, 0.141842, -1.261743, -0.464885, 0.234174, 0.502190, -0.178623, -0.492710, -0.459101, -0.400492, -0.611657, 0.518502, -0.159348, -0.966972, -0.107719, 0.123787, -0.080699, 0.604569, 1.111948, -0.099429, -0.332176, 0.150694, 1.247581, 0.099805, -0.040274, 0.418776, 0.521538, 0.585850},
    {-0.048380, 0.555320, 0.456854, -0.021370, 0.005685, 0.121029, 0.890218, -0.335725, -0.888685, 0.616650, 0.339593, -1.029926, 1.432396, -0.479736, -0.264234, 0.718513, -0.321884, -0.412511, 0.984125, 0.206130, 0.046910, -1.101712, -0.133289, -0.080850, 1.159832, -0.723341, 0.762915, -0.918309, -0.029426, -0.250428, 0.285787, -0.318769},
    {-0.890692, 0.823390, -0.642043, -0.027459, -0.849899, 0.000218, 1.227685, 1.215947, 0.206266, -1.367662, 1.373807, 0.630076, -0.650546, 0.104288, -0.129670, -0.036001, 0.637653, 0.741336, -0.361327, 0.131318, 0.095901, 1.030679, 0.013951, 0.875054, -0.507300, 0.511118, -0.337514, 0.932412, 0.925734, 1.100154, -0.458058, 1.108630},
    {-0.101093, -0.599549, -0.197409, 0.525220, -0.064364, 0.228316, 1.093274, -0.226997, 0.072714, 0.746902, -0.308962, 0.215888, -0.314233, -0.354407, 0.179272, -0.467520, -0.180447, -1.073847, -0.349814, -0.397460, -0.521806, -0.925074, -0.163982, -0.264186, -0.126031, 0.196892, -0.802604, -1.318463, -0.161313, -0.729427, -0.926414, 0.356668},
    {0.222696, 0.586062, -0.151674, -0.242442, -0.285991, 0.092510, -0.617000, 0.655003, 0.123499, 0.654566, -0.278324, 0.521995, -0.150070, 1.077047, 1.304682, -0.127657, 0.551519, 0.402552, -0.202948, -0.180699, 0.055802, 0.977965, -0.278147, -0.415691, -0.764865, -0.566379, -0.765409, -0.358724, -0.605374, 0.502278, 0.580976, -0.042328},
};

static FP_TYPE Bias_lc[10] = {
    -0.108959, 0.248634, -0.014214, -0.205985, 0.242456, -0.018043, -0.192200, 0.525163, -0.279658, -0.249389
};

#endif // RNN_LSTM_WEIGHT_H
